{"labels": ["fall", "nofall"], "inputShape": [64, 130, 1], "layers": {"conv2d": {"kernelShape": [3, 3, 1, 16], "kernel": [-0.1523674577474594, -0.017309505492448807, 0.12035608291625977, -0.17985215783119202, 0.01513074990361929, 0.0065321410074830055, 0.31620004773139954, 0.05082293227314949, -0.2230144590139389, 0.12157342582941055, -0.10559501498937607, 0.13352517783641815, 0.23152707517147064, 0.1223611906170845, -0.10165654867887497, 0.10814358294010162, 0.015976019203662872, 0.035970043390989304, -0.02844630554318428, 0.1853366196155548, -0.12988004088401794, -0.11731306463479996, 0.002881579101085663, -0.20283493399620056, 0.08298677206039429, 0.12123482674360275, -0.2184777408838272, 0.08420322090387344, 0.25929316878318787, -0.11811216175556183, 0.04490285739302635, -0.11481381952762604, -0.22143594920635223, 0.14170187711715698, -0.07561635226011276, 0.17284902930259705, -0.24616359174251556, 0.05476167052984238, -0.03528791666030884, -0.1899976283311844, -0.06406353414058685, 0.20368903875350952, 0.16099220514297485, 0.03446388244628906, 0.1751881092786789, -0.07776764035224915, -0.23373274505138397, -0.11739697307348251, 0.09020211547613144, 0.1759413629770279, 0.11796464025974274, -0.035356149077415466, -0.15152330696582794, 0.1757538616657257, -0.10269870609045029, 0.09681727737188339, -0.21765652298927307, 0.0721888467669487, 0.14274609088897705, -0.0041025192476809025, 0.037227265536785126, -0.16384153068065643, 0.016891149803996086, 0.0012899776920676231, -0.08115532249212265, -0.05402638018131256, -0.03750142455101013, -0.1716950237751007, 0.12443467974662781, 0.07856688648462296, -0.07731488347053528, -0.044066864997148514, 0.1401001662015915, 0.054695095866918564, -0.14347302913665771, 0.047807443886995316, 0.27016681432724, -0.2041824758052826, 0.09248048067092896, 0.08971086144447327, 0.08869129419326782, 0.0018094985280185938, -0.11185061931610107, 0.059911709278821945, 0.06881210207939148, 0.039855413138866425, 0.03998500853776932, 0.016422968357801437, 0.18066219985485077, -0.13590972125530243, -0.13097155094146729, 0.13481318950653076, 0.23292861878871918, -0.0032987429294735193, 0.04342115297913551, -0.03130282089114189, 0.08857198059558868, 0.08110691606998444, -0.038454242050647736, -0.19203972816467285, 0.1680765599012375, -0.044107746332883835, -0.11873628199100494, 0.29417750239372253, 0.13737019896507263, -0.1717340499162674, 0.16822220385074615, -0.0865212082862854, 0.14712318778038025, -0.20232318341732025, 0.032757677137851715, 0.21073569357395172, 0.16944462060928345, 0.10373717546463013, -0.1044677123427391, 0.1535952091217041, 0.21465958654880524, -0.05643700808286667, 0.05903838202357292, -0.045454297214746475, 0.07498429715633392, -0.10987895727157593, 0.057330358773469925, -0.04863743111491203, -0.0009164225193671882, 0.045743755996227264, 0.13921253383159637, 0.05656983330845833, 0.04073766618967056, 0.1503918468952179, 0.14733362197875977, 0.00031985208624973893, -0.07877172529697418, 0.10721973329782486, -0.15173321962356567, -0.0533723309636116, -0.1346597671508789, -0.09376561641693115, 0.07424622029066086, -0.14391277730464935, -0.05852728709578514, -0.17525994777679443, 0.09176865220069885, 0.06881538778543472], "bias": [0.02987370453774929, -0.09472645819187164, -0.07500952482223511, 0.006445262581110001, 0.1007058396935463, -0.10816629230976105, 0.07765710353851318, 0.1277582198381424, 0.08140915632247925, 0.040388960391283035, 0.0033917026594281197, 0.03903238847851753, -0.14132873713970184, 0.03645169362425804, -0.04186054319143295, -0.05026724189519882]}, "conv2d_1": {"kernelShape": [3, 3, 16, 32], "kernel": [0.025780020281672478, 0.08037470281124115, 0.09337129443883896, 0.2171715646982193, -0.06698290258646011, 0.20164018869400024, 0.13639536499977112, -0.05682644993066788, -0.0946638286113739, -0.23549984395503998, 0.066012904047966, -0.3271666467189789, 0.18541884422302246, -0.06482456624507904, -0.2002265900373459, 0.025965899229049683, 0.09381929039955139, 0.195038840174675, -0.1721145212650299, -0.036344822496175766, 0.08225200325250626, 0.09947281330823898, -0.09740490466356277, 0.08477926254272461, 0.10549364238977432, 0.1294221431016922, -0.14060480892658234, -0.22954061627388, -0.0035939477384090424, 0.007775741629302502, -0.09776322543621063, -0.2912966310977936, -0.036476634442806244, 0.10210635513067245, -0.009651423431932926, -0.022237611934542656, -0.07055364549160004, 0.07801701873540878, -0.12947839498519897, -0.14493194222450256, -0.0385817214846611, 0.05402738228440285, 0.021767497062683105, -0.03330007940530777, -0.10865121334791183, 0.02002464048564434, -0.06262990087270737, -0.0679098591208458, -0.134780615568161, 0.05298452451825142, 0.0889563262462616, -0.04947415739297867, -0.005513693206012249, 0.06013432517647743, 0.07081939280033112, 0.007792852818965912, 0.042459938675165176, 0.045865498483181, -0.03554552048444748, 0.17033763229846954, -0.05505358427762985, 0.08893270790576935, -0.14025621116161346, 0.012931528501212597, -0.10103178024291992, 0.08553782850503922, 0.0034239785745739937, -0.008749770000576973, -0.06336648762226105, 0.07691523432731628, 0.12434330582618713, 0.03958059847354889, 0.020728368312120438, 0.04066722095012665, 0.03900688886642456, 0.04027735814452171, -0.0245579294860363, -0.09621934592723846, 0.06881099939346313, 0.020042764022946358, -0.08432178199291229, 0.04413526505231857, -0.041125960648059845, 0.08640044182538986, -0.02127666026353836, -0.012190800160169601, -0.04833778366446495, -0.08117952942848206, 0.11566682904958725, 0.12065233290195465, 0.04434903338551521, 0.0650789886713028, 0.03818153217434883, -0.025954704731702805, -0.1294434368610382, 0.053993552923202515, 0.08662878721952438, 0.04112531989812851, -0.0984988585114479, 0.012057235464453697, -0.019475840032100677, -0.08045849949121475, 0.0381125770509243, 0.10312947630882263, -0.11402729898691177, -0.13292305171489716, 0.03822387382388115, -0.15014173090457916, -0.12157121300697327, -0.09404303878545761, -0.1146731898188591, 0.027871493250131607, -0.012800411321222782, 0.04199671372771263, -0.22209393978118896, 0.15560702979564667, -0.0005966085009276867, 0.03424714878201485, 0.008334229700267315, 0.0945635661482811, -0.05053750053048134, -0.09087514132261276, 0.14968639612197876, -0.24320194125175476, -0.11240746080875397, 0.01628735102713108, 0.02362077869474888, -0.14524750411510468, 0.11743561923503876, -0.004596469923853874, -0.06124326214194298, 0.1110851839184761, -0.055365968495607376, 0.13052920997142792, 0.16228224337100983, -0.15218743681907654, -0.13080723583698273, -0.2568162977695465, 0.0662059336900711, -0.1991482824087143, 0.06570880115032196, -0.24942702054977417, 0.06759236007928848, 0.14636114239692688, 0.11105354130268097, 0.12404952198266983, -0.25530850887298584, 0.043323762714862823, 0.05253620445728302, 0.19744375348091125, -0.11491352319717407, 0.10021408647298813, 0.12191957980394363, 0.09025812894105911, -0.0362519770860672, -0.23222875595092773, 0.174382746219635, 0.13723808526992798, -0.05764518305659294, -0.298878014087677, -0.08158395439386368, 0.08920236676931381, 0.029119068756699562, -0.014330117031931877, -0.033792395144701004, 0.01972891390323639, 0.04008089378476143, 0.03639522194862366, 0.010311727412045002, 0.10809262096881866, -0.11300862580537796, 0.04019269719719887, -0.011080479249358177, -0.028838826343417168, -0.1667281538248062, 0.015253414399921894, 0.007127306889742613, -0.09452517330646515, 0.11868445575237274, 0.09512940794229507, 0.06360912322998047, -0.12469851970672607, 0.063425712287426, -0.035299576818943024, -0.11087486892938614, 0.06472116708755493, 0.09686695039272308, 0.1312357783317566, 0.02519357018172741, -0.0780639797449112, 0.013215540908277035, 0.09213029593229294, -0.06845542043447495, -0.05092550069093704, -0.11917699128389359, -0.1306040734052658, -0.07514121383428574, -0.19658459722995758, -0.11077295243740082, -0.10918983072042465, -0.03201694041490555, -0.2458469569683075, 0.0707097202539444, -0.04275590553879738, -0.17436234652996063, -0.14352445304393768, -0.0620596744120121, -0.06951496005058289, 0.12360963970422745, -0.15316182374954224, -0.40559980273246765, -0.10475639998912811, -0.11739479005336761, -0.1836693286895752, -0.09481284767389297, 0.04660283401608467, -0.11364871263504028, 0.03965609520673752, -0.030369365587830544, -0.14329995214939117, -0.0716228112578392, -0.08184901624917984, -0.02194114401936531, -0.15953871607780457, 0.0008869770099408925, -0.011352491565048695, -0.10839883238077164, 0.18100401759147644, -0.07893794029951096, 0.004219505935907364, 0.15890683233737946, -0.03925681114196777, -0.14050140976905823, -0.26785171031951904, -0.08270836621522903, -0.3044055998325348, 0.09838958829641342, -0.1247793659567833, 0.038565367460250854, -4.5478183892555535e-05, -0.04806169494986534, 0.0416419543325901, -0.34325000643730164, 0.010796469636261463, 0.08541089296340942, 0.046670831739902496, 0.07686761021614075, 0.06180768832564354, 0.06716358661651611, 0.07184629142284393, -0.058941230177879333, -0.17572295665740967, 0.2291153222322464, 0.039961859583854675, 0.02985197864472866, -0.24205265939235687, -0.05050231143832207, -0.13929519057273865, -0.03404977545142174, -0.026186762377619743, -0.020898129791021347, 0.10347507894039154, 0.01707424223423004, -0.04363761097192764, -0.09012060612440109, -0.12709558010101318, 0.041731640696525574, -0.20165835320949554, 0.07759291678667068, -0.12904514372348785, -0.13271521031856537, 0.07833640277385712, -0.018421456217765808, 0.09183383733034134, -0.25771838426589966, -0.06412508338689804, -0.0948576033115387, 0.06644530594348907, 0.08940648287534714, -0.002906370908021927, 0.12988334894180298, -0.07550781220197678, -0.06229022145271301, -0.19794145226478577, 0.02707614377140999, 0.06124410033226013, 0.03028823249042034, -0.18221677839756012, 0.06173143908381462, 0.07054463028907776, 0.09449144452810287, -0.20156824588775635, 0.15509769320487976, -0.01298731379210949, -0.12915867567062378, 0.01108618825674057, 0.048781514167785645, -0.13796178996562958, -0.10438532382249832, -0.019555283710360527, -0.17162346839904785, -0.0103727662935853, -0.17481966316699982, 0.02862461470067501, -0.023953422904014587, -0.22115129232406616, -0.043893132358789444, -0.09844063967466354, -0.08563259243965149, -0.2088983654975891, 0.16451825201511383, -0.03241990506649017, -0.07479986548423767, -0.06625809520483017, -0.023453837260603905, -0.12428607046604156, -0.07698351889848709, -0.004342185333371162, -0.07933615893125534, 0.038748860359191895, 0.09871465712785721, 0.005084515083581209, -0.05151480808854103, 0.185016468167305, -0.044008854776620865, -0.0072456481866538525, -0.007485310081392527, 0.02014593780040741, -0.012342214584350586, -0.1722881942987442, -0.0545600950717926, -0.12547852098941803, 0.12354668229818344, -0.035446785390377045, 0.05623966455459595, 0.08741336315870285, 0.005341796204447746, 0.11766845732927322, -0.03930509090423584, -0.11368457227945328, 0.04884439706802368, 0.17620214819908142, 0.09622664749622345, 0.012096233665943146, -0.03400189429521561, 0.06774891912937164, -0.036426324397325516, -0.04708052799105644, -0.010944118723273277, 0.17539946734905243, -0.1319778859615326, -0.12183623015880585, 0.11496337503194809, 0.06803718209266663, 0.05832582712173462, -0.11811984330415726, -0.006053629331290722, -0.027088865637779236, -0.13250230252742767, -0.1813998520374298, -0.048688121140003204, -0.14475001394748688, -0.12799549102783203, -0.04163825884461403, -0.04469713196158409, 0.03735271468758583, -0.10080920904874802, -0.05963342264294624, 0.001343801966868341, -0.18419478833675385, -0.02042197808623314, -0.01680077612400055, -0.07759678363800049, -0.08407559990882874, 0.03449980169534683, 0.11025740206241608, -0.06912993639707565, -0.15657038986682892, 0.03914567083120346, 0.06690967082977295, -0.03472483530640602, 0.036123596131801605, -0.0508701428771019, -0.0026981867849826813, -0.08205991238355637, 0.12871411442756653, -0.10974998027086258, -0.012165368534624577, -0.0857621505856514, -0.07563033699989319, -0.10101412236690521, -0.07725399732589722, -0.023697003722190857, 0.0325150303542614, -0.012397823855280876, 0.08433642238378525, -0.08588496595621109, 0.09683474153280258, -0.04083729535341263, -0.01970755308866501, 0.003948062192648649, -0.04611507058143616, 0.11734158545732498, 0.06773421168327332, 0.014839251525700092, -0.13294541835784912, 0.05426306277513504, 0.018755121156573296, -0.08842137455940247, -0.11761938780546188, -0.005497561302036047, 0.036618415266275406, 0.03353116288781166, -0.009143105708062649, -0.11527121812105179, 0.18640002608299255, -0.11672960221767426, 0.06663823872804642, 0.03302498161792755, -0.020724862813949585, 0.05914714187383652, -0.006577883381396532, 0.01011074148118496, 0.14514727890491486, -0.14183169603347778, -0.056519877165555954, -0.1220921128988266, -0.07201424986124039, 0.034383051097393036, -0.13894526660442352, 0.07714889943599701, 0.1053176075220108, -0.027422752231359482, -0.08670908957719803, -0.023575402796268463, 0.04312913492321968, -0.037422627210617065, 0.04840764403343201, 0.021982233971357346, -0.002166234888136387, -0.09854455292224884, 0.02269042655825615, 0.045900195837020874, -0.08321670442819595, 0.14161176979541779, 0.014406983740627766, 0.11194699257612228, -0.15991780161857605, 0.09786182641983032, -0.038925088942050934, 0.07830173522233963, -0.005881132557988167, -0.1543615311384201, -0.0757930651307106, 0.08016062527894974, -0.03832470253109932, -0.07600587606430054, 0.04963972046971321, -0.09741096198558807, -0.08242858201265335, 0.08585228025913239, -0.04895295202732086, -0.05594658479094505, -0.04283830150961876, 0.09168887138366699, 0.09226541966199875, -0.06371285766363144, 0.058888476341962814, -0.05975436046719551, -0.00605132756754756, 0.0031060189940035343, 0.017450515180826187, 0.12903723120689392, -0.0024266066029667854, 0.02501770853996277, 0.10151725262403488, 0.02902383916079998, 0.0448300875723362, -0.002000880893319845, 0.058580491691827774, -0.10109281539916992, 0.10248155891895294, -0.039742980152368546, 0.13974811136722565, -0.1609329879283905, -0.043142326176166534, -0.08546476066112518, -0.003669072175398469, 0.04024381935596466, 0.1077742874622345, 0.08421606570482254, 0.11202211678028107, 0.057744767516851425, -0.030223704874515533, 0.05404972657561302, -0.021817652508616447, -0.02403157576918602, -0.06414678692817688, 0.02416848950088024, 0.012618939392268658, -0.003998574335128069, 0.030837709084153175, -0.11291187256574631, 0.038895584642887115, 0.047056544572114944, 0.0822494700551033, 0.05539994314312935, 0.1473485231399536, 0.09268922358751297, 0.10715842992067337, -0.020729541778564453, -0.07274313271045685, 0.054086774587631226, 0.0033163344487547874, 0.046269264072179794, 0.29107511043548584, 0.0011198504362255335, 0.12731900811195374, 0.1680087000131607, -0.18950027227401733, -0.03126725181937218, -0.20637303590774536, 0.05164887383580208, -0.20920979976654053, 0.04742347076535225, -0.031933628022670746, -0.1028767079114914, 0.131879523396492, -0.017606105655431747, 0.1834537386894226, -0.18960294127464294, -0.02207864075899124, -0.039508987218141556, 0.20870986580848694, -0.023478109389543533, 0.11202873289585114, 0.052674271166324615, 0.0589568093419075, 0.006186709739267826, -0.25422096252441406, 0.10098646581172943, 0.21068957448005676, -0.10185617953538895, -0.18268264830112457, 0.08778397738933563, -0.08766022324562073, 0.07768414169549942, -0.047073543071746826, -0.1281866431236267, -0.0642978623509407, 0.08753547817468643, -0.09835085272789001, 0.006123209837824106, 0.12058371305465698, -0.08200150728225708, 0.12019005417823792, 0.04450145736336708, 0.13746848702430725, 0.025082232430577278, 0.007305154576897621, -0.09600762277841568, 0.05275501310825348, 0.12152710556983948, -0.10975582152605057, 0.01582392491400242, 0.02188151702284813, -0.014728822745382786, -0.08707096427679062, 0.008790154941380024, -0.06872204691171646, 0.07404281944036484, -0.011075547896325588, 0.0015453090891242027, -0.048770442605018616, -0.012177719734609127, 0.0006730191526003182, -0.08122352510690689, 0.05746755748987198, -0.03790087625384331, -0.10435962677001953, 0.058211445808410645, -0.07873999327421188, -0.08419197052717209, -0.11810765415430069, -0.033883437514305115, 0.006877162493765354, -0.06303291767835617, -0.14138944447040558, 0.04176386073231697, -0.012301369570195675, 0.024386879056692123, 0.06542104482650757, 0.1209774911403656, -0.012534943409264088, -0.039124757051467896, 0.027906250208616257, -0.09497304260730743, -0.1203586608171463, 0.10439171642065048, -0.0346183106303215, 0.12661899626255035, -0.12600554525852203, -0.04120858013629913, -0.0336274616420269, 0.060423437505960464, 0.16004860401153564, 0.032718852162361145, 0.007410566322505474, -0.03405723720788956, -0.07969655841588974, 0.026883503422141075, -0.06465969979763031, 0.015900276601314545, -0.05300797522068024, -0.09090816229581833, 0.10253643244504929, -0.09784230589866638, -0.1033819317817688, 0.017349043861031532, -0.11992695182561874, -0.10561618208885193, -0.0049848733469843864, -0.043355535715818405, 0.139722540974617, 0.03476223722100258, -0.0667986050248146, -0.04122106730937958, -0.026392394676804543, -0.08539378643035889, 0.0589292012155056, 0.12870343029499054, -0.09795580059289932, -1.0995252523571253e-05, 0.0482756644487381, 0.042997896671295166, -0.14324530959129333, -0.06689705699682236, -0.12312150001525879, 0.04276110976934433, -0.03155459836125374, 0.1582825928926468, 0.13833491504192352, 0.0916096419095993, 0.04653496295213699, 0.07508417218923569, 0.17421701550483704, 0.03530343249440193, 0.04023481160402298, 0.05246273800730705, -0.212736114859581, 0.07203958183526993, -0.3707936704158783, 0.12889347970485687, -0.23573051393032074, -0.06859612464904785, 0.10206810384988785, -0.049267981201410294, 0.19419503211975098, -0.18397288024425507, 0.02997390367090702, -0.0726218968629837, 0.2116352915763855, 0.07458014041185379, 0.11543571203947067, 0.1448720097541809, 0.032659027725458145, -0.1423502266407013, -0.12432245910167694, 0.12258649617433548, 0.06664655357599258, -0.12318699061870575, -0.38127797842025757, 0.11358199268579483, 0.05047987028956413, -0.023625710979104042, -0.06652677804231644, 0.03168536350131035, -0.06302080303430557, -0.0034870950039476156, -0.009240805171430111, 0.07483880966901779, 0.056455910205841064, 0.029984090477228165, -0.02489268034696579, 0.031280722469091415, -0.049561578780412674, -0.05650642141699791, -0.07505916804075241, -0.04991872236132622, 0.05226185917854309, 0.1359342336654663, 0.09960883855819702, 0.02809661068022251, -0.05437833443284035, 0.056016962975263596, 0.11121303588151932, -0.05866371467709541, 0.08921504020690918, 0.08201025426387787, 0.11206061393022537, -0.004638327285647392, -0.11292076110839844, 0.047346632927656174, 0.058115776628255844, 0.05031939595937729, 0.11202544718980789, -0.13324883580207825, -0.012391478754580021, 0.06633549183607101, -0.09230021387338638, -0.1073104590177536, 0.016582250595092773, 0.008891901932656765, -0.16396546363830566, 0.05751689150929451, -0.10865336656570435, -0.08304821699857712, -0.10100077837705612, 0.10114710032939911, -0.05650831386446953, 0.005037660710513592, -0.2132972925901413, -0.45158353447914124, -0.07962749898433685, 0.06520802527666092, -0.1773688644170761, 0.002856397768482566, -0.1238732859492302, 0.024648267775774002, -0.17749471962451935, 0.03154752776026726, -0.31018105149269104, -0.1783464401960373, -0.08000510185956955, -0.07651785016059875, -0.18745186924934387, 0.05814210698008537, 0.049141883850097656, -0.06135150417685509, 0.024446306750178337, 0.019936826080083847, 0.18482044339179993, -0.06138291209936142, -0.11695197224617004, -0.1020311787724495, -0.2576833665370941, -0.004031491000205278, -0.31204044818878174, 0.15876995027065277, -0.05299486219882965, -0.012324871495366096, -0.015518232248723507, 0.05158441513776779, 0.22788044810295105, -0.23506367206573486, 0.03227965161204338, -0.04290132597088814, 0.047978475689888, 0.05650472640991211, -0.0593290850520134, 0.11370794475078583, 0.10070854425430298, -0.06217389181256294, -0.3046276867389679, 0.05940729007124901, 0.19152602553367615, 0.01870756782591343, -0.3026029169559479, -0.043943267315626144, -0.060970108956098557, -0.09279903769493103, -0.050921328365802765, 0.12285064160823822, 0.15895506739616394, 0.022340910509228706, -0.003335141111165285, 0.014497161842882633, -0.07327862828969955, 0.05745783448219299, -0.0648677721619606, 0.034977950155735016, -0.03787510469555855, -0.13037803769111633, -0.027438664808869362, -0.06875061988830566, 0.20601192116737366, -0.21340449154376984, -0.0928020179271698, -0.13389688730239868, 0.18584290146827698, -0.006315211299806833, 0.0765925794839859, -0.05650470405817032, -0.09676206111907959, -0.09924115240573883, -0.12768571078777313, 0.12395307421684265, 0.041838388890028, 0.09180574119091034, -0.27138084173202515, 0.0291767418384552, -0.029875054955482483, -0.01998620666563511, -0.0855107307434082, 0.10675614327192307, -0.15465743839740753, -0.18173842132091522, -0.052247513085603714, 0.04215504974126816, 0.026632605120539665, 0.009998512454330921, 0.02574852481484413, -0.16396568715572357, -0.13765035569667816, -0.20275741815567017, -0.002575863851234317, 0.10184204578399658, -0.24969491362571716, -0.152568981051445, 0.01677367463707924, -0.1091451570391655, -0.1108490526676178, -0.02390071377158165, 0.0841662585735321, -0.03675948455929756, -0.006488303188234568, 0.021442484110593796, -0.09460308402776718, -0.08120062947273254, -0.1495743691921234, -0.20741131901741028, -0.06809039413928986, 0.04237240552902222, 0.1248769760131836, -0.06509260088205338, 0.23485969007015228, -0.09949184209108353, 0.1542026400566101, 0.003301357850432396, -0.09986452758312225, -0.13654829561710358, -0.04336881637573242, -0.032433055341243744, -0.25621962547302246, 0.0967629998922348, -0.09349720180034637, -0.030823133885860443, 0.03128404915332794, 0.015314404852688313, 0.17050303518772125, -0.19751682877540588, 0.02200591191649437, -0.13395127654075623, 0.2106521874666214, 0.06941254436969757, -0.06650412082672119, 0.10917261987924576, 0.05758759751915932, 0.08177227526903152, -0.028224434703588486, 0.03241334483027458, 0.028489766642451286, 0.09194832295179367, -0.3595156967639923, 0.04102944955229759, -0.06103666499257088, -0.0016332706436514854, -0.10869479179382324, 0.11492203921079636, -0.11662527918815613, -0.15749478340148926, 0.07595266401767731, -0.013408128172159195, -0.06978128850460052, 0.008319461718201637, 0.05938813090324402, -0.06383109092712402, -0.02803659625351429, -0.047903165221214294, 0.09234927594661713, 0.007083582691848278, -0.03513721004128456, 0.09813395887613297, -0.028898010030388832, 0.05174480378627777, -0.1696508675813675, 0.1445271521806717, 0.042545024305582047, -0.13021932542324066, 0.007203410379588604, 0.05765952914953232, -0.03302188590168953, -0.06955450028181076, -0.17549650371074677, -0.06944949179887772, -0.0007616260554641485, -0.1103319302201271, -0.1614314466714859, -0.046507418155670166, -0.07661095261573792, 0.04250385984778404, -0.12451329827308655, -0.09811469912528992, -0.01651870273053646, 0.08283524960279465, 0.05157475546002388, -0.13041774928569794, -0.054716452956199646, -0.08998414129018784, 0.008588976226747036, -0.14156968891620636, -0.027570415288209915, -0.01906297542154789, -0.0790141150355339, 0.08562354743480682, 0.10807063430547714, -0.004733620677143335, 0.022718273103237152, 0.052797455340623856, -0.057363614439964294, -0.12788161635398865, -0.07435012608766556, 0.09548565000295639, 0.095345139503479, -0.06788506358861923, -0.10235803574323654, 0.01600044220685959, 0.13571423292160034, -0.08647750318050385, 0.09167078137397766, 0.0305454283952713, 0.09790446609258652, -0.11775766313076019, 0.1214894950389862, 0.033829864114522934, -0.00598692474886775, 0.04896090552210808, 0.05984265357255936, 0.05866358056664467, -0.031571488827466965, 0.058294206857681274, 0.03510183095932007, -0.05294310674071312, 0.074154332280159, -0.07623302191495895, -0.0057599712163209915, -0.03000332973897457, -0.04426620528101921, -0.02797233872115612, 0.13393205404281616, -0.09522242844104767, -0.12174426764249802, -0.02908102236688137, -0.1232309564948082, -0.020402632653713226, -0.02176000364124775, 0.11110103130340576, 0.02653915248811245, 0.14783704280853271, 0.06688467413187027, 0.0951784998178482, 0.07130870968103409, -0.05866986885666847, 0.10629535466432571, -0.05330929532647133, -0.021273085847496986, -0.0986904501914978, -0.008944688364863396, -0.02835356444120407, -0.09503413736820221, -0.008482319302856922, 0.07278101146221161, -0.048835549503564835, 0.11533544212579727, -0.1946272999048233, 0.027324950322508812, 0.10482249408960342, 0.1420578956604004, 0.024337871000170708, 0.0033482995349913836, 0.01523489411920309, 0.021484388038516045, -0.07323695719242096, 0.0860542431473732, -0.007562938611954451, -0.07425998896360397, -0.08560687303543091, 0.1070435643196106, 0.11562096327543259, -0.03367771953344345, -0.04319082945585251, -0.05022282525897026, -0.010393118485808372, -0.05421186611056328, 0.05700239539146423, -0.0003409840865060687, -0.15261046588420868, -0.018684055656194687, -0.1040215939283371, -0.07161656022071838, -0.0706513300538063, -0.07139722257852554, -0.09507716447114944, 0.04899606853723526, 0.12578831613063812, 0.05488361790776253, 0.04738317057490349, -0.013906838372349739, -0.12066399306058884, -0.07558831572532654, 0.046923037618398666, -0.0254962220788002, -0.12415997684001923, -0.04324832558631897, -0.041081737726926804, 0.08329182863235474, -0.08528268337249756, 0.03416784480214119, -0.1253765970468521, -0.059835102409124374, 0.01615469716489315, 0.12986746430397034, 0.06222335249185562, 0.1243075430393219, 0.09506810456514359, 0.1453181356191635, -0.04039540886878967, 0.25958237051963806, 0.08173428475856781, 0.12094346433877945, 0.1470547765493393, -0.11538340896368027, 0.047207511961460114, -0.1557633876800537, -0.09739582240581512, -0.20346301794052124, 0.04335726425051689, -0.251998633146286, -0.03901301324367523, 0.14277461171150208, 0.04410107061266899, 0.0803174376487732, -0.31683456897735596, -0.13578855991363525, 0.0028247982263565063, 0.06071385368704796, 0.020294366404414177, 0.06172475591301918, 0.12506023049354553, 0.049142882227897644, 0.07352481782436371, -0.11284737288951874, 0.0837838426232338, 0.07125864177942276, -0.1339680552482605, -0.349081426858902, -0.011166557669639587, 0.05483653023838997, 0.004825669340789318, 0.031579095870256424, -0.03843281790614128, 0.06653115153312683, -0.1172521710395813, -0.04966062679886818, 0.08009018003940582, 0.05415717512369156, -0.11058812588453293, 0.16989347338676453, -0.1054532453417778, 0.13264566659927368, -0.04981875419616699, -0.002188151003792882, -0.009063470177352428, -0.09748102724552155, 0.16803570091724396, -0.10452248156070709, -0.0676213800907135, 0.03729379177093506, 0.07498648017644882, -0.09594311565160751, -0.0866064578294754, 0.003915620502084494, -0.10199672728776932, -0.009160708636045456, -0.12430079281330109, -0.11763892322778702, -0.1472887396812439, 0.08890038728713989, -0.024861665442585945, -0.06692564487457275, 0.1113634705543518, -0.01735859364271164, -0.03553028777241707, -0.06054750829935074, -0.02313072606921196, 0.13778036832809448, 0.010931238532066345, -0.023420147597789764, -0.06526858359575272, 0.070146843791008, -0.08199436217546463, -0.20111100375652313, -0.09472238272428513, -0.04948621615767479, -0.01815834455192089, 0.12950623035430908, 0.006980585400015116, 0.0546652153134346, 0.07419926673173904, -0.0328618623316288, -0.05275113135576248, 0.032731182873249054, 0.1030566543340683, -0.06945992261171341, 0.11767502129077911, -0.06470295786857605, 0.1346512734889984, 0.022645624354481697, -0.1393170952796936, -0.07517609745264053, -0.07028261572122574, 0.10577564686536789, -0.014468546956777573, -0.10088308900594711, 0.032085027545690536, 0.022418266162276268, 0.11334359645843506, 0.07025981694459915, -0.1315539926290512, 0.03182688355445862, 0.004135832656174898, 0.08026774972677231, 0.12116777896881104, -0.06166554242372513, -0.12134905904531479, -0.013771268539130688, 0.10978363454341888, 0.018696675077080727, -0.11642978340387344, 0.052056316286325455, -0.07916983962059021, -0.10827895253896713, -0.021995676681399345, -0.05416494980454445, 0.09306057542562485, -0.04680557921528816, 0.05141131952404976, -0.07498835772275925, 0.02267564833164215, -0.06641925126314163, 0.06415815651416779, 0.02035527303814888, -0.03807789087295532, 0.0791521817445755, -0.12342917919158936, 0.132859006524086, 0.1053643599152565, -0.033648598939180374, 0.005838877521455288, -0.012103632092475891, -0.1513712853193283, -0.2295098900794983, 0.08084029704332352, -0.2661586403846741, 0.012427986599504948, -0.06807197630405426, -0.05105631425976753, -0.040131665766239166, 0.030423074960708618, 0.050679609179496765, -0.2644166648387909, -0.062410637736320496, -0.03240785375237465, 0.16290365159511566, -0.04044606164097786, 0.13594533503055573, 0.13904723525047302, 0.08929996192455292, -0.08376588672399521, -0.1620444804430008, 0.05705763399600983, 0.12777851521968842, -0.09595426172018051, -0.43463078141212463, 0.0353182889521122, -0.0276686642318964, 0.07982052117586136, 0.09561281651258469, 0.06355426460504532, -0.03305674344301224, -0.034944843500852585, 0.01842409186065197, -0.11784321069717407, -0.08879726380109787, -0.11697801947593689, -0.0340946801006794, 0.09186654537916183, 0.01090308278799057, -0.20493726432323456, -0.05139822140336037, 0.07797407358884811, -0.11481589823961258, 0.15486998856067657, 0.00549508398398757, 0.09163948148488998, 0.06126977875828743, -0.029277030378580093, 0.1367151290178299, -0.14637188613414764, -0.09319890290498734, 0.011737406253814697, -0.043122198432683945, 0.03923425450921059, -0.08771299570798874, -0.0661308765411377, 0.13640213012695312, 0.08849178999662399, -0.012832927517592907, -0.12795968353748322, -0.1412946730852127, 0.10635872930288315, -0.08477091044187546, -0.05604575201869011, -0.01827339455485344, -0.10983789712190628, -0.25403445959091187, -0.11615946888923645, -0.15892724692821503, 0.040856633335351944, -0.08294135332107544, -0.042822208255529404, -0.09467259794473648, -0.02216448076069355, -0.1790376901626587, -0.29633069038391113, 0.03494638949632645, -0.03922295570373535, -0.1410525143146515, 0.12873756885528564, -0.12294945120811462, -0.14154449105262756, -0.068814218044281, -0.007347414270043373, -0.23503324389457703, -0.1368844211101532, 0.015023371204733849, 0.06201421469449997, -0.381117582321167, -0.02257448621094227, -0.03215568885207176, -0.13371707499027252, 0.05524355173110962, 0.08876644819974899, -0.02181597240269184, 0.09521696716547012, -0.0003737685037776828, 0.04555027186870575, -0.1816253513097763, -0.08497606217861176, -0.26251834630966187, 0.0344897098839283, -0.20213304460048676, 0.0726427361369133, -0.08428007364273071, -0.0527678057551384, 0.05230586975812912, -0.329399436712265, 0.1330186277627945, 0.007311861030757427, 0.08483827859163284, 0.0025789919309318066, -0.0745227187871933, 0.1353936791419983, -0.05221090838313103, -0.10022006928920746, -0.23164841532707214, 0.05330324545502663, 0.053563088178634644, -0.021356400102376938, -0.5283961296081543, 0.03918448090553284, 0.09323536604642868, -0.018120983615517616, 0.06101302430033684, -0.030594248324632645, 0.011408165097236633, 0.06911823898553848, -0.014858381822705269, -0.13456958532333374, -0.05340477079153061, -0.0752846747636795, -0.10237780213356018, -0.04637731611728668, -0.02293679118156433, -0.054605886340141296, 0.11251132935285568, 0.009589669294655323, -0.018402015790343285, -0.0007396931177936494, -0.11038966476917267, -0.10149993002414703, 0.09810949116945267, -0.04481310024857521, -0.08707116544246674, 0.0791417807340622, -0.009096119552850723, -0.11444510519504547, -0.028525009751319885, 0.06503850966691971, 0.1007106602191925, -0.10976015776395798, -0.30533909797668457, 0.07036986202001572, -0.06710231304168701, 0.11215494573116302, -0.19056156277656555, -0.018238797783851624, -0.11829358339309692, -0.1630127727985382, 0.052656058222055435, 0.004999835509806871, -0.14878101646900177, -0.021047715097665787, -0.13450953364372253, -0.06579779088497162, -0.10271792858839035, -0.11835546791553497, -0.04530802369117737, 0.10572315752506256, -0.08651543408632278, -0.14442917704582214, -0.1406881958246231, -0.07662556320428848, -0.10926895588636398, 0.03627527877688408, 0.11940193921327591, -0.2564256489276886, -0.05190981179475784, 0.16311697661876678, 0.002025213558226824, -0.05079735442996025, -0.06396608054637909, -0.16561253368854523, -0.03598614037036896, 0.08011377602815628, -0.01112835668027401, -0.04426534101366997, 0.05451170355081558, 0.0695371925830841, 0.09939943253993988, 0.1612585335969925, 0.008879845961928368, 0.05621962249279022, -0.1350250393152237, 0.06400911509990692, -0.0181585606187582, -0.03713614493608475, -0.10273551195859909, -0.04155762493610382, -0.025185732170939445, 0.035595860332250595, 0.0628378614783287, -0.10056537389755249, -0.05259448662400246, 0.09237094968557358, 0.1240406483411789, -0.013615651987493038, 0.06331542134284973, 0.17197342216968536, 0.1565021574497223, -0.08485402911901474, -0.0575040765106678, 0.16387160122394562, 0.12094111740589142, -0.08963712304830551, -0.33179888129234314, -0.0857757031917572, 0.0030832840129733086, 0.07555975019931793, -0.18991054594516754, 0.06021098792552948, -0.1508985459804535, -0.15853334963321686, 0.034153424203395844, 0.07627308368682861, -0.04795603081583977, -0.015748534351587296, -0.10247592628002167, 0.050458360463380814, 0.08785505592823029, -0.15643064677715302, -0.010856622830033302, 0.09769769012928009, -0.19677026569843292, 0.11849022656679153, -0.08295309543609619, 0.09541355818510056, -0.02051021158695221, 0.02202356792986393, 0.06313502043485641, -0.05468911677598953, -0.06044101342558861, 0.10905547440052032, -0.08364503085613251, -0.18254753947257996, -0.2087283432483673, -0.04063722491264343, 0.12814198434352875, 0.018536586314439774, -0.15163181722164154, -0.024392586201429367, -0.14193981885910034, 0.06639260053634644, -0.04134754464030266, -0.04169972985982895, -0.040555354207754135, 0.0606052502989769, 0.10436242073774338, 0.04378523305058479, 0.010565434582531452, -0.09170137345790863, -0.017726397141814232, -0.13284680247306824, -0.07704845070838928, 0.03539060056209564, -0.10471802949905396, 0.07492727786302567, -0.13803783059120178, 0.03051026538014412, -0.12841951847076416, -0.09355714172124863, 0.08570554852485657, -0.082869753241539, -0.028317276388406754, 0.11131560802459717, 0.07137531042098999, -0.14052702486515045, -0.12298352271318436, 0.04791535437107086, 0.06908293068408966, -0.03051185980439186, 0.11286361515522003, -0.005553029477596283, -0.05226858705282211, 0.045412302017211914, 0.04596598818898201, 0.05129211023449898, -0.15690164268016815, 0.047663215547800064, -0.008453241549432278, -0.07053982466459274, -0.0357137992978096, -0.07324113696813583, 0.08745056390762329, 0.02274402230978012, 0.05847007408738136, -0.008997444063425064, 0.033138457685709, -0.16330905258655548, -0.059079959988594055, 0.07797505706548691, -0.007475300692021847, 0.07087529450654984, -0.07961632311344147, 0.017924800515174866, -0.018445340916514397, -0.00850103609263897, 0.042310722172260284, -0.0110244145616889, 0.011060384102165699, 0.012593659572303295, -0.06831423938274384, 0.03808216750621796, -0.10980980843305588, 0.0296468548476696, 0.1302475482225418, -0.07890941202640533, 0.017800303176045418, -0.019618341699242592, -0.06654299050569534, -0.07901295274496078, 0.052886709570884705, 0.0013632398331537843, 0.06539161503314972, 0.08799216151237488, 0.04399484023451805, -0.3239454925060272, 0.035012830048799515, -0.0028408414218574762, -0.042679253965616226, 0.053460463881492615, 0.009906720370054245, 0.08135679364204407, 0.10902635753154755, 0.12611636519432068, -0.005970536265522242, 0.03688738867640495, 0.03242609649896622, -0.0927932932972908, -0.0756932944059372, -0.02704915590584278, -0.08361529558897018, 0.0034691444598138332, 0.029249776154756546, 0.11095067858695984, -0.1174340769648552, -0.04280271753668785, 0.037833321839571, -0.06361491233110428, 0.007310102228075266, -0.0785508006811142, 0.09052545577287674, -0.07207328826189041, 0.007517957128584385, 0.04097640514373779, 0.01157613005489111, -0.005127903074026108, 0.0895218625664711, -0.13176189363002777, 0.14524541795253754, -0.04258488863706589, 0.11886388063430786, -0.09198272228240967, 0.08773817121982574, 0.04405452683568001, 0.1410290151834488, 0.11407133936882019, 0.1020379588007927, -0.03171619027853012, -0.09569668769836426, -0.08024833351373672, 0.05317986011505127, 0.08011277765035629, 0.13499926030635834, 0.08192117512226105, 0.025674663484096527, -0.030668830499053, -0.008045269176363945, -0.054607145488262177, 0.1637624353170395, 0.07072330266237259, -0.05500004068017006, 0.025555763393640518, -0.12354559451341629, -0.029716668650507927, -0.3557637333869934, 0.01657375879585743, -0.26346415281295776, -0.008269879035651684, -0.19849389791488647, -0.04596704617142677, 0.03758716955780983, -0.025593746453523636, 0.03239148110151291, -0.42736437916755676, -0.09310644119977951, -0.02817409299314022, 0.08004625886678696, 0.07914262264966965, -0.0856788381934166, 0.1685638427734375, 0.0466579794883728, -0.07739578932523727, -0.34434568881988525, 0.1492580622434616, 0.1359521448612213, -0.01611967757344246, -0.32359766960144043, -0.12927797436714172, 0.024527670815587044, -0.04650057479739189, -0.03935133293271065, -0.17977648973464966, -0.05131141468882561, -0.05425894260406494, -0.06836998462677002, -0.031156407669186592, 0.08708663284778595, 0.03374933823943138, -0.014632049016654491, 0.08242806792259216, -0.03429168835282326, -0.06161655858159065, -0.17295747995376587, -0.10701382905244827, 0.02933242917060852, -0.012708966620266438, 0.05470921844244003, -0.023316971957683563, 0.049072880297899246, -0.04710467904806137, -0.035146500915288925, -0.08894628286361694, -0.093882717192173, 0.0571121908724308, -0.0638650432229042, -0.06231537461280823, 0.1212567463517189, -0.03810980170965195, 0.03425554186105728, -0.029342005029320717, 0.19821840524673462, 0.04122040793299675, 0.018015297129750252, -0.14468525350093842, -0.0638556182384491, 0.011197112500667572, 0.12237628549337387, 0.06100025027990341, 0.10410583019256592, 0.04772757738828659, 0.07276907563209534, 0.06252019107341766, -0.01666978932917118, -0.10474734008312225, -0.016321605071425438, -0.10441631823778152, -0.11242450028657913, 0.012075858190655708, 0.07400015741586685, 0.08696050941944122, -0.05965569615364075, -0.08173320442438126, -0.05329439789056778, -0.006487161386758089, -0.011401072144508362, -0.13774192333221436, 0.14227192103862762, -0.08960049599409103, -0.0036221882328391075, 0.009081247262656689, 0.15298883616924286, 0.06858014315366745, -0.09976720809936523, -0.09181555360555649, 0.0517902746796608, -0.1368217170238495, 0.07193273305892944, -0.01941095106303692, 0.20704789459705353, -0.07580788433551788, -0.007611722219735384, 0.07583490014076233, -0.13823387026786804, -0.05577802658081055, -0.021094679832458496, -0.19280198216438293, -0.035704098641872406, -0.045748237520456314, 0.05799150466918945, -0.143840029835701, 0.05309542268514633, -0.12118609994649887, 0.05658804625272751, 0.06458041071891785, 0.03552446886897087, -0.050008583813905716, -0.06975051760673523, -0.14214950799942017, -0.21646903455257416, -0.14131160080432892, -0.01893758960068226, 0.14128318428993225, -0.12098545581102371, -0.0796288400888443, -0.08655466884374619, -0.08564336597919464, -0.08471257984638214, 0.10627640783786774, -0.041580602526664734, -0.006900857202708721, 0.008728285320103168, 0.0725397989153862, -0.4423972964286804, 0.08045631647109985, -0.3545360565185547, -0.06280961632728577, -0.24688023328781128, 0.0499231331050396, -0.08532251417636871, 0.039685528725385666, 0.08180096745491028, -0.32630231976509094, 0.034007228910923004, 0.025283807888627052, 0.13998053967952728, 0.1159702017903328, -0.048285119235515594, -0.045995019376277924, 0.09950794279575348, 0.04648701101541519, -0.24386195838451385, -0.03588477894663811, 0.09691452980041504, -0.11117768287658691, -0.3670896291732788, 0.03744379058480263, -0.02149393782019615, -0.016927840188145638, -0.014863123185932636, -0.087061308324337, 0.0051343319937586784, 0.11091768741607666, -0.08190975338220596, -0.04553684592247009, -0.033629465848207474, -0.10430260747671127, 0.0808081328868866, 0.09218120574951172, -0.11375875771045685, -0.16642546653747559, -0.1416616141796112, -0.018596531823277473, -0.029893783852458, 0.09990174323320389, 0.13572491705417633, 0.033932384103536606, 0.1197153776884079, 0.07989132404327393, 0.07513425499200821, -0.06747988611459732, 0.022791597992181778, -0.022983677685260773, 0.04909932240843773, 0.02432846464216709, 0.033794209361076355, 0.1001763716340065, 0.033322617411613464, 0.10106734931468964, 0.10663878172636032, -0.022311221808195114, -0.09406933933496475, 0.09436727315187454, 0.009755391627550125, -0.08449553698301315, 0.07246440649032593, -0.05835350602865219, -0.14108574390411377, 0.0033254302106797695, 0.0038893905002623796, -0.06444202363491058, -0.13974034786224365, -0.09186572581529617, 0.03720194846391678, -0.012080538086593151, 0.08881315588951111, -0.10715918242931366, -0.14414305984973907, -0.13440485298633575, -0.06900205463171005, 0.04510174319148064, 0.08415674418210983, -0.09765888750553131, -0.08730370551347733, 0.08807596564292908, -0.03445765748620033, -0.08823087811470032, -0.08315587788820267, 0.10545168817043304, -0.19596469402313232, 0.09675529599189758, 0.04018883407115936, -0.10765176266431808, -0.05872200429439545, -0.09964529424905777, 0.05408542975783348, -0.10157805681228638, 0.0914522334933281, -0.05077389255166054, -0.3591788709163666, 0.010263830423355103, -0.24890542030334473, -0.06153781712055206, -0.19810929894447327, -0.04988167807459831, 0.08021868020296097, -0.046924933791160583, 0.013942012563347816, -0.3351237177848816, 0.012915926985442638, 0.008289224468171597, 0.03333960846066475, 0.09763911366462708, 0.07931887358427048, 0.02464882843196392, -0.13824652135372162, -0.06131477281451225, -0.24900229275226593, 0.05709931254386902, 0.018645869567990303, -0.0491238534450531, -0.3204541504383087, -0.025462551042437553, -0.1089494600892067, -0.0939318835735321, -0.0903443694114685, 0.05433810129761696, -0.13179828226566315, -0.08856071531772614, 0.007690946105867624, 0.07088550180196762, -0.2778162658214569, -0.10808736085891724, -0.22162601351737976, 0.06214331462979317, -0.12829537689685822, 0.04828816279768944, 0.02427067421376705, 0.11475949734449387, -0.11333544552326202, -0.19821147620677948, -0.042264994233846664, -0.1286969631910324, 0.006433806847780943, 0.09145263582468033, 0.0003227065899409354, -0.08438463509082794, -0.14689397811889648, 0.08649410307407379, -0.3173866271972656, 0.026812663301825523, -0.10807794332504272, -0.06395125389099121, -0.22332976758480072, -0.02365141361951828, 0.09639103710651398, 0.08825535327196121, -0.009835843928158283, -0.036294881254434586, -0.043398480862379074, -0.09295808523893356, -0.04571027308702469, 0.04454426467418671, 0.09639591723680496, -0.05481669306755066, 0.10549483448266983, -0.08936227113008499, 0.13390497863292694, -0.14796797931194305, 0.021368402987718582, -0.016844963654875755, -0.026545079424977303, 0.10726559907197952, -0.11521447449922562, 0.0025633235927671194, 0.030439510941505432, 0.15694959461688995, 0.027953101322054863, 0.05820092931389809, -0.10887759178876877, -0.013369584456086159, 0.10030849277973175, -0.04224517568945885, 0.030925791710615158, -0.18427032232284546, -0.07404275238513947, -0.020487284287810326, 0.05710307136178017, 0.009960523806512356, -0.15386149287223816, -0.05888320878148079, 0.0195656456053257, 0.04218119755387306, 0.0279065128415823, 0.042180467396974564, -0.17985990643501282, -0.10515033453702927, 0.010363264009356499, 0.04547522962093353, -0.07238459587097168, 0.08913642913103104, -0.023774245753884315, 0.09338471293449402, 0.05717829242348671, -0.1342819333076477, -0.11647634953260422, 0.07206109911203384, -0.08913705497980118, 0.033443402498960495, 0.024671372026205063, 0.060433439910411835, 0.08497703820466995, -0.07154376804828644, -0.15081153810024261, -0.10603918880224228, -0.007718260865658522, -0.05565933510661125, -0.07050725817680359, 0.006147356238216162, 0.038163840770721436, -0.0723583772778511, 0.1081080511212349, -0.09219992905855179, -0.09371771663427353, 0.09907635301351547, -0.14265091717243195, -0.03606089577078819, -0.008015074767172337, 0.05192655697464943, -0.04693029448390007, -0.09470690041780472, 0.06046492978930473, -0.16043299436569214, -0.0406695231795311, -0.06649575382471085, -0.0262555330991745, 0.10368077456951141, -0.06375138461589813, 0.05303366854786873, -0.07245859503746033, 0.12377577275037766, -0.10008247941732407, -0.0008652547257952392, 0.07088319957256317, -0.05321875214576721, -0.09427408128976822, 0.10122387856245041, 0.0022804264444857836, -0.09546805918216705, -0.07409512996673584, -0.1353083848953247, 0.036944709718227386, 0.08160196244716644, 0.017682133242487907, -0.010323797352612019, 0.03219480812549591, -0.046770285815000534, -0.13455021381378174, 0.08467859029769897, 0.12437185645103455, -0.08801494538784027, 0.014733226969838142, 0.062293071299791336, 0.1103336364030838, -0.17643192410469055, -0.005061226896941662, -0.13807860016822815, -0.051706526428461075, 0.17033787071704865, -0.05970074608922005, -0.04496781900525093, 0.09319005906581879, -0.11098472028970718, 0.08559302985668182, 0.1293763518333435, -0.029270315542817116, -0.041637007147073746, 0.14576105773448944, 0.0667809471487999, 0.010934741236269474, -0.13379383087158203, 0.1559264361858368, 0.05922158807516098, -0.05748290196061134, 0.030287696048617363, -0.00247974693775177, -0.005539420060813427, 0.08784404397010803, -0.11444777995347977, 0.13519476354122162, -0.08500677347183228, -0.08475728332996368, -0.11633680760860443, -0.047045156359672546, -0.10097350925207138, -0.005553713534027338, -0.04298049956560135, 0.037723347544670105, 0.1003778874874115, 0.053326986730098724, -0.08116064220666885, -0.09339047223329544, -0.040750980377197266, 0.0005568471387960017, 0.09414465725421906, -0.06755901128053665, -0.18148958683013916, 0.006269554141908884, -0.06435521692037582, -0.09826833009719849, 0.06688932329416275, 0.04840119928121567, 0.01659664884209633, -0.112228624522686, -0.07711164653301239, -0.007332319859415293, -0.03796706721186638, -0.018400732427835464, -0.04187731817364693, 0.031582850962877274, 0.0518922433257103, 0.0031132930889725685, -0.03165033832192421, -0.08360875397920609, 0.00014107185415923595, 0.033501796424388885, -0.014415300451219082, -0.06763388961553574, -0.1839040070772171, -0.10202673822641373, 0.09494572877883911, 0.04556271806359291, -0.1544339507818222, 0.0013640576507896185, -0.0258990079164505, 0.051570042967796326, -0.018821820616722107, 0.05208170786499977, -0.018954575061798096, 0.043868791311979294, -0.14328055083751678, 0.016377396881580353, 0.08037850260734558, 0.06564299017190933, -0.13606657087802887, -0.1453833281993866, -0.1592560112476349, -0.06768931448459625, -0.12674246728420258, 0.03444911912083626, 0.043904099613428116, -0.0437680184841156, 0.04139694944024086, -0.003816469805315137, -0.14649803936481476, -0.1160392165184021, -0.12439199537038803, -0.0834781751036644, 0.03251742944121361, -0.12684552371501923, 0.08429230749607086, 0.002604641718789935, -0.14542928338050842, 0.09456568956375122, 0.042281657457351685, 0.04639849066734314, 0.049809928983449936, -0.03662348538637161, -0.0596357099711895, -0.12345924228429794, 0.11386057734489441, 0.08245393633842468, 0.0847938060760498, 0.08155810087919235, -0.06833379715681076, 0.10240170359611511, 0.028028154745697975, -0.09377659857273102, -0.07380399107933044, -0.03923320025205612, -0.037940096110105515, 0.2061363160610199, -0.056211523711681366, 0.05345600098371506, 0.0831199586391449, -0.17240050435066223, 0.04117603227496147, -0.21938155591487885, -0.0980897843837738, -0.30517372488975525, 0.05034562200307846, -0.3660326898097992, -0.20187246799468994, -0.0730862095952034, -0.024979643523693085, 0.047414422035217285, -0.44033369421958923, 0.04195356369018555, 0.026638023555278778, 0.11219745874404907, -0.031880348920822144, 0.07275038212537766, 0.0623495988547802, 0.12158764898777008, -0.006362782791256905, -0.2890598177909851, 0.012361519038677216, 0.12245023995637894, 0.02298041246831417, -0.3568683862686157, -0.020626356825232506, -0.06795716285705566, 0.0928054228425026, 0.0008367018308490515, -0.12847359478473663, 0.1169072836637497, 0.10942777246236801, -0.10774431377649307, -0.0015600977931171656, 0.003489055670797825, 0.0061226533725857735, -0.01817493699491024, -0.01902320235967636, 0.018909193575382233, 0.033001627773046494, -0.0852183848619461, -0.03517213836312294, 0.06355086714029312, 0.1144624575972557, -0.05392010137438774, -0.01861272007226944, -0.06770125776529312, -0.07265965640544891, -0.10526123642921448, -0.0970948114991188, -0.05788755044341087, -0.1394362896680832, 0.1124424934387207, 0.05257341265678406, -0.08349176496267319, -0.10531105846166611, 0.008098524063825607, 0.02545214630663395, 0.15836986899375916, 0.11651632189750671, -0.010436530224978924, 0.005764888599514961, -0.1074477806687355, -0.02142489142715931, -0.16709594428539276, -0.05829223617911339, 0.020532799884676933, -0.029118018224835396, -0.11855567246675491, 0.042055338621139526, 0.004546096548438072, -0.03990810737013817, -0.08378759026527405, -0.0009754443890415132, -0.05441594496369362, -0.06275925785303116, 0.14194108545780182, 0.06313920766115189, -0.14649078249931335, 0.009343503974378109, -0.04249212518334389, -0.07411997765302658, 0.009165945462882519, -0.09282771497964859, 0.052998319268226624, -0.1108466237783432, -0.03717738017439842, -0.05272510647773743, 0.04986228793859482, -0.01693759858608246, -0.08784911781549454, -0.03107331320643425, 0.024634918197989464, 0.02893107198178768, -0.03001559153199196, 0.10620514303445816, 0.031073840335011482, -0.09135375171899796, 0.032628435641527176, 0.04952633008360863, 0.05937938019633293, -0.04731177166104317, -0.10605745017528534, -0.1520020067691803, 0.01928080804646015, -0.05830340087413788, 0.0805535838007927, -0.15662787854671478, -0.1333112120628357, -0.13071094453334808, -0.0412968285381794, -0.04394436627626419, 0.0034485242795199156, 0.08475781977176666, 0.07359996438026428, -0.03271853178739548, -0.15703637897968292, -0.15803124010562897, -0.10065009444952011, 0.1022852286696434, -0.1490190178155899, 0.06134426221251488, 0.00013440189650282264, 0.07072968780994415, 0.10005892068147659, -0.05341816693544388, -0.02971031330525875, 0.02052485942840576, -0.03390774875879288, -0.14091604948043823, -0.36676931381225586, -0.1363452970981598, -0.14539624750614166, 0.10101395845413208, -0.2457442283630371, -0.08731366693973541, 0.07366347312927246, 0.06025463715195656, 0.05388298258185387, -0.41683176159858704, -0.04842923581600189, -0.10687591135501862, -0.014864861965179443, -0.05935663357377052, -0.026094216853380203, 0.0989515483379364, -0.05194214731454849, 0.07028532773256302, -0.33728066086769104, 0.12359941750764847, 0.038304273039102554, -0.11337351053953171, -0.24857698380947113, -0.06895313411951065, 0.07260961830615997, 0.05123778432607651, 0.10747461020946503, -0.13735103607177734, 0.10359090566635132, 0.05589594319462776, -0.1205802857875824, 0.010647999122738838, 0.042374663054943085, -0.052269045263528824, -0.09921948611736298, -0.012378529645502567, -0.05869903787970543, -0.06849996000528336, 0.09203966706991196, -0.08852867037057877, 0.06113797798752785, -0.019128290936350822, 0.08581128716468811, 0.0122181111946702, -0.01160877849906683, -0.0036516657564789057, -0.021400554105639458, 0.022246170789003372, 0.08792988210916519, -0.1329258382320404, 0.01705377735197544, -0.03173420950770378, -0.05211525410413742, 0.09623267501592636, 0.09630903601646423, 0.014755139127373695, -0.05221157148480415, -0.06416469067335129, -0.06223851814866066, -0.05431114882230759, -0.10832870751619339, -0.12646068632602692, -0.0327160619199276, 0.11534802615642548, -0.06401852518320084, -0.03991271182894707, -0.09842626750469208, -0.08229412138462067, -0.1551714390516281, 0.06687459349632263, 0.02724999189376831, -0.054815102368593216, -0.0656653344631195, -0.1647680401802063, 0.022074809297919273, 0.029130440205335617, -0.02729959227144718, 0.015508903190493584, 0.09698887914419174, -0.03178813308477402, -0.0807117447257042, 0.10951314121484756, -0.19388528168201447, 0.0026048324070870876, 0.03162508085370064, 0.07200895994901657, -0.2128673493862152, 0.09694452583789825, 0.1152651458978653, 0.0833485871553421, 0.0036147430073469877, 0.054111938923597336, -0.046276453882455826, 0.06197560951113701, 0.03384537994861603, -0.029202908277511597, -0.23195265233516693, 0.0619075745344162, -0.2579424977302551, -0.048900965601205826, -0.19751837849617004, -0.09447712451219559, 0.04177955910563469, 0.04874581843614578, 0.008627781644463539, -0.29337456822395325, 0.16506792604923248, 0.08071301132440567, 0.007957366295158863, 0.09301017969846725, -0.13397455215454102, 0.13199937343597412, 0.01333171222358942, -0.0230159480124712, -0.2145291268825531, -0.020035680383443832, 0.11003639549016953, 0.0862102061510086, -0.3480687439441681, -0.07413896918296814, -0.11721435934305191, -0.06937020272016525, -0.04983195662498474, 0.14321455359458923, 0.02572215162217617, -0.02725331112742424, -0.07461868971586227, -0.0755983367562294, 0.01224456075578928, 0.052358005195856094, -0.04265525937080383, -0.06651518493890762, -0.18088243901729584, 0.050095412880182266, 0.10281446576118469, -0.07403910160064697, -0.028510645031929016, -0.0717487782239914, -0.18871457874774933, 0.0026833447627723217, 0.04976753890514374, 0.026700221002101898, -0.029445907101035118, 0.08665986359119415, -0.07583262771368027, -0.05229152739048004, -0.05992859601974487, -0.05702260509133339, -0.09535086154937744, 0.13015495240688324, -0.30406680703163147, 0.1378118246793747, -0.16387616097927094, -0.03628643602132797, 0.14046728610992432, 0.017124256119132042, -0.121097631752491, -0.006185285281389952, -0.09868651628494263, 0.06907513737678528, -0.13151372969150543, -0.03145856782793999, 0.03904050216078758, 0.07889501005411148, -0.0468309186398983, -0.10990966111421585, -0.044868048280477524, 0.09033322334289551, -0.07081914693117142, 0.05357283726334572, 0.016511015594005585, 0.005237101577222347, 0.04173306003212929, 0.1480948030948639, 0.02055288851261139, -0.03876688331365585, 0.04728132113814354, -0.001143846195191145, 0.09076995402574539, 0.06446248292922974, -0.10508622974157333, 0.01605341210961342, -0.07445276528596878, -0.030879847705364227, -0.09193167090415955, -0.09691567718982697, 0.018113773316144943, 0.009740244597196579, 0.014497131109237671, -0.06031361594796181, -0.12867029011249542, -0.00946295540779829, -0.2668291926383972, -0.1304677128791809, -0.07644672691822052, 0.016521548852324486, -0.3045106530189514, -0.03500380367040634, 0.04591292142868042, 0.1447645127773285, -0.03731713071465492, -0.33116036653518677, 0.03533158823847771, 0.06751108914613724, -0.11108259111642838, -0.013212001882493496, 0.06653335690498352, -0.054127346724271774, 0.07269252091646194, -0.11208752542734146, -0.27935171127319336, 0.035214781761169434, 0.013339138589799404, -0.088521808385849, -0.2666513919830322, 0.10904364287853241, -0.08370647579431534, 0.08604612201452255, 0.001411266392096877, -0.04295169562101364, -0.04179636016488075, -0.004116747993975878, 0.010240796022117138, -0.00396468210965395, -0.10883316397666931, 0.12403471022844315, -0.005785683169960976, 0.04039773717522621, 0.008792628534138203, -0.13280798494815826, 0.052292272448539734, 0.09066179394721985, 0.12472275644540787, 0.11747628450393677, 0.048913709819316864, 0.07508152723312378, -0.00953538715839386, 0.043993279337882996, 0.11699448525905609, 0.0188653115183115, -0.06009301543235779, 0.07454884797334671, -0.05413954704999924, -0.0760614424943924, -0.05230508744716644, -0.13695880770683289, 0.06339311599731445, 0.08678929507732391, -0.015341237187385559, 0.0022793198004364967, 0.01451961137354374, 0.021620482206344604, -0.050055138766765594, 0.03164932131767273, -0.0027293411549180746, -0.07721199095249176, 0.02734861709177494, -0.05361253768205643, 0.05736873298883438, -0.07513067126274109, 0.07768194377422333, -0.037597719579935074, 0.06926489621400833, -0.10374928265810013, 0.09459609538316727, 0.15106192231178284, -0.08404377102851868, -0.10591597110033035, -0.06354431807994843, -0.12299247086048126, -0.10563269257545471, 0.06586699932813644, 0.05934765562415123, -0.0649113580584526, 0.10968542098999023, -0.013578751124441624, -0.019343920052051544, 0.06437700986862183, 0.054376259446144104, -0.041014887392520905, 0.06529475748538971, -0.10243053734302521, 0.06893359869718552, 0.06511382013559341, -0.151441752910614, -0.13834279775619507, -0.10621805489063263, 0.08352669328451157, -0.08193820714950562, 0.00975522305816412, -0.0600275844335556, 0.031493496149778366, 0.06453057378530502, 0.1664588302373886, 0.059095077216625214, -0.010969769209623337, 0.06593606621026993, -0.024067403748631477, -0.05411157384514809, -0.1195284053683281, -0.023992400616407394, 0.00784830842167139, 0.0910765677690506, -0.1262701153755188, -0.0667843148112297, -0.04640794172883034, -0.00044808536767959595, -0.028582563623785973, -0.06278881430625916, 0.10973580181598663, -0.07006892561912537, -0.11879002302885056, 0.038388513028621674, 0.02990645542740822, 0.1353973001241684, -0.09075001627206802, -0.007119657006114721, -0.0022538257762789726, 0.016223561018705368, -0.0373176746070385, 0.04333112761378288, 0.05017794668674469, -0.033797360956668854, 0.04048789292573929, -0.08049913495779037, -0.15568049252033234, -0.017374210059642792, 0.08251973241567612, 0.016207629814743996, -0.15961579978466034, 0.1108359694480896, -0.09875141084194183, -0.0011170159559696913, -0.084055595099926, 0.06507550925016403, -0.015548903495073318, -0.04966776445508003, -0.1296454221010208, -0.03896213695406914, 0.021577918902039528, -0.02674638293683529, 0.05953025072813034, -0.1263909637928009, -0.1349523961544037, 0.08812665194272995, 0.06161653250455856, 0.005627859849482775, -0.08076266199350357, 0.0914182960987091, -0.07394260168075562, 0.04426518827676773, -0.13094516098499298, 0.006509500555694103, -0.12680520117282867, -0.029131827875971794, -0.0763167291879654, -0.12505578994750977, -0.05031938850879669, -0.10046429187059402, -0.0509004071354866, 0.13819298148155212, -0.015078685246407986, -0.04672291874885559, 0.08640385419130325, 0.12608326971530914, 0.01622379757463932, -0.10489083081483841, -0.045292045921087265, 0.026598313823342323, -0.1439940333366394, 0.04896852746605873, 0.10908396542072296, 0.021365270018577576, 0.10963084548711777, -0.0419049933552742, -0.05628611147403717, -0.044408928602933884, 0.04440509155392647, 0.20472466945648193, 0.10815636068582535, 0.15924642980098724, 0.10670340806245804, -0.05809878185391426, -0.10389915853738785, -0.3094502389431, -0.010861562564969063, -0.3021807372570038, 0.04716511443257332, -0.2617882490158081, -0.09371987730264664, -0.08850857615470886, 0.17184731364250183, 0.13352905213832855, -0.3859691917896271, -0.09483654797077179, -0.0693129375576973, 0.15556703507900238, -0.04267632216215134, -0.0642974004149437, 0.09469100087881088, 0.11486556380987167, 0.05042918771505356, -0.22555191814899445, -0.022612255066633224, 0.09932582825422287, -0.0879070833325386, -0.2940531373023987, 0.04699547588825226, -0.09941597282886505, -0.0527331680059433, 0.05235213413834572, -0.08601586520671844, 0.0039022916462272406, 0.12419188767671585, -0.07141127437353134, 0.015737920999526978, 0.14498959481716156, -0.006663530599325895, -0.06876011192798615, 0.08551230281591415, -0.008052018471062183, -0.02630079723894596, -0.11649691313505173, 0.06309224665164948, 0.043016381561756134, 0.11692947894334793, -0.018152687698602676, 0.09743770211935043, 0.07086032629013062, 0.08720621466636658, -0.047809626907110214, 0.11600902676582336, 0.11353784054517746, -0.08391482383012772, 0.13308946788311005, -0.04584439843893051, -0.037867020815610886, -0.028977053239941597, -0.0863117054104805, 0.0989842563867569, -0.009999890811741352, 0.06605226546525955, -0.07961966097354889, -0.04395802691578865, -0.04614528268575668, -0.05574336647987366, 0.11470194905996323, -0.059166863560676575, 0.0009755835053510964, 0.07514328509569168, -0.07086186110973358, -0.03413793817162514, 0.06735038757324219, -0.11416836082935333, 0.004187828861176968, -0.11592362821102142, -0.022124353796243668, 0.011839964427053928, -0.03509319946169853, 0.07014626264572144, 0.05412188172340393, 0.06157113239169121, -0.04016612470149994, -0.08180501312017441, -0.004819493740797043, 0.0722527727484703, 0.08575818687677383, -0.08666150271892548, 0.037149570882320404, -0.024025065824389458, 0.02740609273314476, -0.1215435266494751, -0.024036500602960587, -0.04465389996767044, -0.012820729985833168, -0.10566253215074539, -0.023496435955166817, -0.07445036619901657, -0.09013145416975021, -0.0047805411741137505, 0.07770559936761856, -0.09008347988128662, 0.0839642882347107, -0.018318479880690575, 0.06357875466346741, 0.027188092470169067, 0.14305947721004486, -0.07642766088247299, 0.0010272276122123003, -0.012337185442447662, -0.0904637947678566, 0.04892434552311897, -0.09451380372047424, 0.010614405386149883, 0.06898441165685654, -0.03236528858542442, 0.03852042555809021, -0.04266726225614548, -0.09453852474689484, 0.041234634816646576, -0.05085216835141182, 0.10328835248947144, 0.062111690640449524, -0.03571474924683571, 0.023680325597524643, -0.0845477432012558, 0.04714960977435112, 0.06549723446369171, 0.008807565085589886, 0.10032899677753448, -0.014374246820807457, -0.01778198406100273, -0.24548831582069397, 0.01437882985919714, -0.16964992880821228, 0.009105936624109745, -0.28647151589393616, -0.016043400391936302, 0.0806841105222702, 0.1520576924085617, -0.013288883492350578, -0.29595404863357544, -0.1305825263261795, -0.0914536565542221, 0.011239090003073215, 0.03811061754822731, 0.06276224553585052, -0.026368631049990654, 0.005893663503229618, 0.05911894142627716, -0.3649667203426361, 0.11760679632425308, 0.01722634583711624, -0.12616576254367828, -0.34260284900665283, -0.11153069883584976, 0.03550487011671066, -0.0943734273314476, 0.09553620964288712, -0.009550965391099453, 0.03126364201307297, -0.06138163059949875, 0.017537280917167664, -0.004622031934559345, -0.06855038553476334, 0.02911148965358734, 0.07981588691473007, -0.003048776416108012, -0.11562366038560867, -0.00869694072753191, -0.03557896986603737, 0.0342865064740181, -0.008451531641185284, 0.11907998472452164, -0.006516494322568178, 0.04641284793615341, 0.05717185139656067, -0.011013500392436981, -0.029731404036283493, -0.0761822760105133, 0.09479210525751114, -0.04599551483988762, 0.019227290526032448, 0.0689132958650589, -0.007272717077285051, -0.07564584910869598, -0.06600101292133331, 0.10791857540607452, 0.04527755081653595, 0.0785817950963974, 0.054055701941251755, 0.09042223542928696, -0.05242181941866875, -0.13395185768604279, -0.030790330842137337, 0.06005461513996124, -0.14841069281101227, 0.09601450711488724, -0.08781880885362625, -0.0071272957138717175, -0.17599332332611084, 0.04267552122473717, -0.08213619887828827, 0.10192126780748367, -0.1154026910662651, -0.2524697184562683, 0.005341860931366682, 0.03400178253650665, -0.036707498133182526, -0.03681562840938568, -0.04902053251862526, -0.060008786618709564, -0.06439796835184097, 0.05028827488422394, -0.01164498645812273, -0.12323743104934692, -0.10864953696727753, -0.010563291609287262, -0.2564500868320465, -0.10806222259998322, -0.030858958140015602, 0.07181812077760696, -0.03172017261385918, -0.07110942900180817, 0.04570871219038963, -0.11827124655246735, 0.050922784954309464, -0.0614037960767746, -0.08716811239719391, 0.03927800431847572, -0.12963859736919403, -0.012153004296123981, -0.19555003941059113, -0.017551681026816368, 0.06716875731945038, -0.0033150005619972944, -0.0802900567650795, -0.45139792561531067, 0.05044816806912422, 0.034663159400224686, -0.08609773963689804, 0.018335118889808655, 0.04993464797735214, -0.04452534765005112, -0.166397824883461, -0.05338551849126816, -0.21254095435142517, -0.009048611856997013, -0.11845996230840683, 0.07581726461648941, -0.47458916902542114, -0.08482590317726135, 0.01172548159956932, 0.009847273118793964, 0.005603121593594551, 0.042209699749946594, 0.039719413965940475, 0.12258248776197433, -0.01957797072827816, 0.022463520988821983, 0.00935238879173994, -0.004756732378154993, -0.057644471526145935, 0.1033734679222107, -0.22669751942157745, -0.07469692081212997, 0.02764187380671501, 0.011881274171173573, -0.052179936319589615, -0.06099192425608635, -0.09316777437925339, -0.10107649862766266, 0.01885376311838627, 0.0033377627842128277, 0.08205146342515945, -0.08227323740720749, -0.001728386734612286, -0.11266212165355682, -0.02979695238173008, -0.12859691679477692, 0.063047394156456, -0.023046649992465973, -0.1334483027458191, -0.03812290355563164, -0.058316268026828766, -0.05279872193932533, 0.08823217451572418, -0.06153630465269089, 0.06244782730937004, 0.030616015195846558, -0.01061423122882843, -0.02265789732336998, -0.10959133505821228, -0.053136639297008514, 0.10395906865596771, 0.04855908453464508, 0.068630151450634, -0.1865883618593216, 0.047364816069602966, -0.03308148309588432, 0.10746181011199951, -0.02285042591392994, -0.014273788779973984, 0.01886766590178013, -0.09597690403461456, -0.054121457040309906, 0.050615113228559494, 0.0177625585347414, -0.04096119478344917, 0.12512513995170593, 0.08737342804670334, -0.08116748929023743, -0.048922352492809296, 0.05049579590559006, -0.09485665708780289, 0.0900447741150856, 0.07568155229091644, 0.06538313627243042, 0.023043155670166016, 0.08412027359008789, -0.1219862774014473, -0.02719171904027462, -0.037313830107450485, 0.006718874908983707, -0.0019680988043546677, 0.042785800993442535, -0.19799906015396118, -0.11462704092264175, -0.2168978899717331, 0.04056508466601372, -0.01539951004087925, 0.13538053631782532, -0.05912143364548683, -0.3611295223236084, 0.08613351732492447, -0.05186011642217636, -0.044798269867897034, -0.07105656713247299, -0.05382050573825836, 0.0937202200293541, 0.047472935169935226, -0.11347384005784988, -0.18966719508171082, -0.11279670894145966, 0.028320306912064552, -0.0798143818974495, -0.3369363248348236, 0.012982405722141266, -0.025449486449360847, -0.08921907842159271, 0.05424345284700394, 0.015390168875455856, 0.11000032722949982, -0.026583926752209663, -0.03199601545929909, 0.03832642734050751, 0.11367101967334747, 0.03736015781760216, -0.00615155603736639, 0.03215191140770912, 0.1035444587469101, -0.11340770125389099, 0.028064673766493797, -0.035541847348213196, 0.1207362711429596, 0.04460445046424866, -0.09724153578281403, -0.13788585364818573, -0.04345696419477463, 0.04093310236930847, 0.10203817486763, -0.10729852318763733, -0.04701431840658188, 0.08206269890069962, 0.051875073462724686, -0.08604145050048828, 0.0905437096953392, -0.13097333908081055, -0.05107542872428894, 0.057630930095911026, -0.004763574805110693, -0.03572767227888107, 0.028845807537436485, -0.09862010926008224, 0.049076128751039505, 0.10873616486787796, -0.12254839390516281, -0.1266838163137436, 0.029951665550470352, 0.023253068327903748, 0.1461300551891327, -0.008911882527172565, 0.12421191483736038, 0.026698369532823563, -0.0880778580904007, -0.04562561213970184, 0.026951603591442108, -0.012180939316749573, -0.09519312530755997, 0.06286297738552094, 0.03530895709991455, 0.10009343922138214, 0.09774411469697952, 0.05713265389204025, 0.0775195062160492, -0.05630200356245041, 0.12636780738830566, 0.10005524754524231, 0.13656605780124664, -0.05342261120676994, 0.11504317075014114, 0.01499958522617817, 0.04802589491009712, -0.01327073760330677, 0.09438562393188477, -0.07282665371894836, -0.09424426406621933, -0.12724214792251587, -0.09078669548034668, -0.00555848516523838, 0.07320581376552582, -0.08848662674427032, -0.030327962711453438, 0.07925461232662201, -0.0990944355726242, 0.11122500896453857, 0.1113489493727684, -0.06955582648515701, -0.06243406981229782, -0.06660250574350357, -0.03672577440738678, 0.03351713344454765, -0.08454473316669464, 0.03415052965283394, 0.06733718514442444, 0.04460259899497032, -0.03670300915837288, 0.10784195363521576, -0.13725878298282623, -0.121165432035923, 0.07179541140794754, -0.011707602068781853, -0.0059050084091722965, -0.08459185063838959, 0.09911986440420151, -0.054557617753744125, 0.05413670837879181, 0.07347729802131653, 0.11088620871305466, -0.02253805659711361, -0.018040448427200317, -0.028710462152957916, 0.007284763269126415, 0.09764530509710312, -0.07353169471025467, 0.10480193048715591, 0.023917002603411674, -0.017970656976103783, -0.0791897401213646, -0.044934701174497604, 0.106138676404953, -0.050866078585386276, -0.11586963385343552, 0.030043654143810272, 0.000578325882088393, -0.0726354643702507, -0.08669397234916687, 0.10112537443637848, -0.09697354584932327, -0.029491355642676353, -0.14826998114585876, -0.05185158550739288, 0.11815837025642395, -0.09820796549320221, -0.136216938495636, -0.12121541053056717, -0.03205665573477745, 0.06770933419466019, 0.03931098431348801, 0.0819375067949295, -0.0052980114705860615, 0.14773836731910706, -0.09292029589414597, 0.06357932090759277, -0.08678892254829407, 0.1276821792125702, -0.10839248448610306, -0.03658367320895195, -0.02454923465847969, 0.07674714922904968, 0.04644716531038284, -0.06761427223682404, 0.12543019652366638, -0.04407266899943352, 0.10919192433357239, -0.09592130035161972, 0.007229649927467108, 0.029255924746394157, -0.09383349120616913, -0.043876420706510544, -0.008720691315829754, -0.1530373990535736, -0.03906456008553505, 0.13569018244743347, -0.06080285832285881, -0.03462420776486397, 0.05700159817934036, -0.06750637292861938, -0.07326903194189072, -0.017238788306713104, -0.1507040411233902, -0.11308733373880386, 0.03930072486400604, -0.06377717852592468, -0.05199453979730606, -0.05604926124215126, 0.17959587275981903, 0.047300901263952255, 0.0008884476847015321, -0.1451699435710907, 0.05995268374681473, -0.1947023868560791, -0.08062367886304855, -0.00030205189250409603, -0.12297721207141876, -0.021303340792655945, -0.0784066915512085, 0.023663746193051338, -0.15487495064735413, 0.09351393580436707, 0.10859107226133347, -0.0671013742685318, -0.12537533044815063, -0.14044758677482605, -0.09426089376211166, -0.07110004127025604, -0.11520431190729141, -0.14933554828166962, -0.025699185207486153, 0.008014933206140995, 0.06245642527937889, -0.1310790628194809, -0.07410427927970886, -0.028471391648054123, 0.042580824345350266, 0.07189413160085678, -0.17106808722019196, 0.02343340590596199, 0.1359349936246872, -0.15162953734397888, 0.027808524668216705, 0.10005824267864227, 0.0747646689414978, -0.1832074373960495, -0.005293740890920162, 0.0718759223818779, 0.15950003266334534, 0.1461167186498642, 0.09150579571723938, 0.019753994420170784, 0.08887988328933716, -0.07180459797382355, -0.17849093675613403, 0.1208249181509018, 0.12313243746757507, -0.17566116154193878, 0.06602781265974045, -0.026411237195134163, 0.020652873441576958, 0.05183517560362816, 0.06392262130975723, 0.04479747638106346, 0.08529020845890045, 0.11181868612766266, -0.1386043131351471, -0.11169631779193878, -0.13676628470420837, -0.07941840589046478, 0.0010169119341298938, -0.13177825510501862, 0.03529718518257141, 0.07160133868455887, -0.013637085445225239, -0.036238156259059906, 0.1152360588312149, -0.09314622730016708, -0.14996477961540222, 0.04087330028414726, -0.07926152646541595, -0.06514500081539154, 0.08850672096014023, 0.003391639096662402, 0.038245972245931625, 0.0026705143973231316, -0.09189923852682114, -0.0854780450463295, -0.03463535010814667, -0.1368030607700348, 0.07267149537801743, -0.017723793163895607, -0.10054052621126175, -0.015250854194164276, -0.08219756186008453, 0.05266031622886658, -0.06529515981674194, 0.10322127491235733, -0.046983253210783005, -0.0072235725820064545, 0.0390191487967968, -0.03023379109799862, 0.19957873225212097, -0.12072429060935974, -0.1760256439447403, -0.06970181316137314, -0.09497904032468796, -0.06935404986143112, -0.10854824632406235, -0.13390694558620453, -0.05672726407647133, -0.09886397421360016, 0.07640667259693146, -0.23564204573631287, 0.01057512778788805, 0.019275348633527756, -0.045898158103227615, 0.04034711420536041, 0.06967524439096451, -0.06956853717565536, 0.028314726427197456, -0.08556898683309555, -0.060895759612321854, 0.062370505183935165, -0.025758175179362297, -0.07483388483524323, -0.18252669274806976, 0.09345296025276184, 0.0794183686375618, -0.12054253369569778, -0.19915664196014404, -0.04716283082962036, -0.19327649474143982, -0.07024931907653809, -0.1534312516450882, 0.03483095392584801, 0.11990036815404892, 0.02508676052093506, 0.10780872404575348, 0.012289837934076786, -0.059091582894325256, 0.11269108951091766, 0.08899743109941483, -0.009887639433145523, -0.011883151717483997, -0.060882341116666794, -0.007051579188555479, -0.0948413535952568, -0.09940027445554733, 0.026903115212917328, -0.06549110263586044, -0.024868981912732124, -0.010768924839794636, 0.04552198201417923, -0.1703387349843979, -0.15564964711666107, -0.12445088475942612, -0.06281537562608719, 0.10210389643907547, -0.07708081603050232, 0.07873991876840591, -0.12015466392040253, 0.014605298638343811, -0.007364865392446518, -0.07155365496873856, 0.024537324905395508, -0.030056964606046677, 0.029261529445648193, 0.04459423944354057, 0.03528174012899399, 0.04733201861381531, -0.06300017237663269, 0.1328527182340622, 0.005685484502464533, 0.022388579323887825, 0.07091712951660156, 0.13333457708358765, 0.17295759916305542, 0.07259304076433182, 0.029140818864107132, 0.05135375261306763, -0.007424111478030682, -0.12079060822725296, -0.022688234224915504, 0.030517078936100006, -0.045273639261722565, 0.16687330603599548, -0.09718423336744308, 0.14519232511520386, -0.03789137676358223, 0.13695582747459412, 0.08618944138288498, 0.0396919921040535, -0.10514893382787704, 0.04706599563360214, 0.11604956537485123, 0.04986453056335449, 0.0009303131373599172, -0.022410748526453972, 0.06595948338508606, -0.14383149147033691, -0.08130116760730743, -0.0007238786784000695, 0.011137879453599453, -0.135340616106987, 0.031310420483350754, -0.05228911712765694, -0.005502923391759396, 0.1259351521730423, -0.18237359821796417, -0.08467968553304672, -0.005676860921084881, -0.06878343969583511, 0.05286121368408203, 0.05097958445549011, 0.08780024945735931, -0.00657524773851037, -0.04756071791052818, -0.17881472408771515, 0.05020369216799736, -0.05343020707368851, -0.08176617324352264, -0.2253274768590927, -0.08496110886335373, 0.07650364190340042, 0.03408742696046829, -0.08946753293275833, -0.08988974243402481, -0.08771353214979172, -0.18489745259284973, -0.10868290811777115, -0.060733091086149216, -0.11650572717189789, -0.08965885639190674, -0.12518377602100372, 0.01912643015384674, -0.1225714385509491, 0.1023544892668724, -0.04060714691877365, -0.020596489310264587, -0.13408344984054565, -0.195506289601326, -0.12979654967784882, 0.05650119110941887, -0.21332187950611115, -0.06510999798774719, 0.07871434837579727, 0.03034021146595478, -0.00628624064847827, 0.04869037866592407, -0.2850286364555359, -0.16527311503887177, -0.05135275050997734, 0.10468798875808716, -0.19280347228050232, -0.006058454047888517, -0.05622075870633125, -0.11813797801733017, -0.08995901048183441, -0.024537252262234688, -0.03587210550904274, -0.16374512016773224, 0.06902279704809189, 0.04347224906086922, -0.06472542136907578, -0.030100282281637192, -0.03248545899987221, -0.137130469083786, -0.19647501409053802, -0.053416408598423004, -0.026136696338653564, -0.006848840042948723, 0.019761091098189354, -0.2708847224712372, -0.013517683371901512, -0.09216240048408508, 0.0004913596203550696, -0.02857860177755356, 0.08072573691606522, -0.1212332546710968, -0.12175959348678589, 0.04593728110194206, -0.27280211448669434, -0.17154449224472046, -0.02537854202091694, 0.005329436622560024, -0.19293531775474548, 0.03616900369524956, 0.014071880839765072, 0.08037618547677994, 0.04539753869175911, 0.07922495156526566, 0.0692019909620285, -0.02317946031689644, -0.10090797394514084, 0.028347522020339966, -0.04997281730175018, -0.10129549354314804, -0.17961882054805756, 0.08299527317285538, -0.1631011813879013, -0.063786081969738, 0.17723439633846283, -0.0018457171972841024, -0.05745863541960716, 0.030354652553796768, 0.04475846514105797, -0.004834725987166166, -0.02734527178108692, 0.06742748618125916, 0.025553375482559204, -0.06496874988079071, -0.03614380583167076, 0.018665457144379616, -0.032734084874391556, 0.003638968802988529, 0.11584635078907013, -0.09470673650503159, -0.1999892145395279, -0.07146438956260681, 0.09933500736951828, 0.1062316745519638, -0.07499274611473083, -0.021233677864074707, -0.045494820922613144, -0.08051374554634094, 0.13092617690563202, -0.10159988701343536, 0.07521123439073563, -0.11150842905044556, 0.0936211571097374, 0.04876897856593132, 0.10099385678768158, -0.11174086481332779, -0.00411465996876359, -0.1007562056183815, -0.16000477969646454, 0.11982543766498566, -0.023134849965572357, -0.10402652621269226, -0.16401691734790802, -0.14787471294403076, -0.024041734635829926, -0.08627214282751083, 0.02573026530444622, -0.039336416870355606, 0.12138751894235611, -0.14811021089553833, -0.07629897445440292, -0.00559274572879076, 0.0972478836774826, 0.031585272401571274, 0.11259464919567108, 0.09984912723302841, -0.02729656733572483, -0.10003006458282471, -0.016961779445409775, 0.14770588278770447, -0.07474146783351898, 0.007654314395040274, -0.09077899158000946, -0.05710957571864128, -0.07448425143957138, -0.008542860858142376, -0.033037856221199036, -0.21340656280517578, 0.10155791789293289, -0.08251678943634033, 0.0981610044836998, 0.03870423883199692, -0.06512296199798584, -0.05139552429318428, -0.0043163783848285675, -0.022059645503759384, -0.05449282005429268, 0.02001376263797283, 0.11175993829965591, -0.14408330619335175, 0.0028797609265893698, -0.06267601251602173, 0.02938438579440117, -0.08968882262706757, -0.05281622335314751, -0.01717086136341095, 0.1279195249080658, -0.011320606805384159, 0.09456703066825867, -0.019563624635338783, 0.10825257748365402, 0.0440555103123188, -0.08484149724245071, -0.10490669310092926, -0.030312085524201393, 0.0729149729013443, 0.14399509131908417, 0.10304377228021622, 0.12062865495681763, -0.16544324159622192, -0.14956137537956238, -0.012953273952007294, 0.07060988247394562, 0.13141125440597534, 0.128586083650589, -0.12492911517620087, 0.063237763941288, -0.1905422806739807, -0.15972644090652466, 0.11720145493745804, 0.02288699336349964, -0.00020902097458019853, -0.03366687893867493, 0.13050299882888794, 0.009283718653023243, -0.029883714392781258, -0.005319970194250345, -0.04317186400294304, -0.002896268153563142, 0.02319197542965412, 0.0535351000726223, 0.04458911344408989, -0.13457736372947693, -0.09338577836751938, 0.14628873765468597, 0.09962377697229385, -0.014104391448199749, 0.033114902675151825, -0.06057566776871681, -0.09847446531057358, -0.02250875160098076, 0.15533363819122314, -0.06623154133558273, 0.0588495172560215, 0.025707127526402473, -0.08667050302028656, -0.1530512571334839, 0.06218334659934044, -0.0781569704413414, -0.01202896237373352, -0.1097387820482254, -0.1607421487569809, -0.07916729897260666, -0.007523564621806145, 0.024264471605420113, -0.06601789593696594, -0.1931256353855133, 0.10438425838947296, 0.017999151721596718, -0.020158180966973305, -0.10735417902469635, 0.0670822411775589, -0.02613210678100586, -0.019320674240589142, 0.03960097208619118, -0.020524200052022934, -0.07806828618049622, -0.10761873424053192, 0.14186665415763855, -0.003333759494125843, 0.0148163465783, 0.09682498872280121, 0.004022008273750544, -0.0773080363869667, -0.10231202095746994, -0.1029973179101944, 0.09464415907859802, 0.039182741194963455, 0.13455653190612793, 0.08374441415071487, -0.005019723903387785, -0.16122591495513916, -0.0433264784514904, -0.06381320208311081, -0.05056534335017204, -0.14739729464054108, 0.04932769760489464, 0.004441394004970789, -0.09305212646722794, -0.15545499324798584, 0.061014797538518906, 0.0026181356515735388, 0.05274534970521927, -0.0724169984459877, 0.004638478625565767, -0.015308276750147343, -0.07611750811338425, 0.1399216204881668, -0.038479290902614594, 0.009019647724926472, 0.0911955013871193, -0.1573050320148468, 0.10077930986881256, 0.02333461306989193, -0.0268789604306221, -0.04361334443092346, 0.03802437707781792, -0.04028752073645592, 0.12803487479686737, 0.018767671659588814, -0.048049695789813995, -0.05683106929063797, 0.007885294035077095, -0.07866964489221573, -0.04350794106721878, 0.012401003390550613, 0.017091581597924232, -0.15081727504730225, 0.08826268464326859, 0.07966326922178268, 0.061430834233760834, -0.15987059473991394, 0.19603118300437927, -0.05364042893052101, -0.08658169209957123, 0.11290422827005386, -0.11024025827646255, -0.04622993245720863, 0.004139959346503019, -0.08026277273893356, -0.0425829216837883, -0.03589078038930893, 0.023479213938117027, -0.1316801756620407, 0.02255992218852043, -0.0963170975446701, -0.04822771996259689, -0.1251262128353119, 0.07459136843681335, 0.11537344008684158, -0.08539745956659317, 0.05948465317487717, -0.005598182324320078, -1.562807483423967e-06, -0.06998396664857864, -0.11350724846124649, 0.09652979671955109, -0.17608408629894257, -0.03139426186680794, -0.011119315400719643, 0.04269818216562271, -0.12058884650468826, 0.04108643904328346, -0.05140477046370506, -0.01016263384371996, 0.018142541870474815, 0.03396424651145935, -0.032895006239414215, 0.08239434659481049, -0.12165360897779465, -0.005541528109461069, 0.0731244757771492, 0.006530881859362125, 0.08807986229658127, 0.1611427664756775, -0.12147949635982513, 0.1112341359257698, 0.07349351048469543, -0.04060773178935051, -0.09682229161262512, -0.008683629333972931, -0.03463941067457199, 0.019627725705504417, 0.016489068046212196, 0.09848804771900177, 0.07358306646347046, 0.10054297745227814, -0.0871344655752182, -0.10619588941335678, -0.07167409360408783, -0.06637945026159286, -0.15192481875419617, 0.006581346970051527, -0.048472072929143906, 0.0340711735188961, 0.018597664311528206, 0.13027344644069672, -0.08634782582521439, -0.08719989657402039, -0.03880474716424942, -0.016848251223564148, -0.05530080944299698, -0.11022500693798065, 0.046609897166490555, 0.07810936123132706, 0.02954210713505745, 0.13033033907413483, 0.08054415881633759, 0.09235570579767227, 0.08308392018079758, 0.020830869674682617, 0.06603212654590607, -0.14970926940441132, -0.10234028846025467, 0.07432059198617935, 0.13677053153514862, 0.15522991120815277, 0.08959568291902542, -0.05119946226477623, 0.11014942079782486, -0.1131814494729042, -0.05270304158329964, -0.0004650346527341753, 0.06832937151193619, 0.09854424744844437, -0.08759976178407669, 0.0825437679886818, 0.01785380393266678, -0.07874688506126404, 0.07794278115034103, -0.12591594457626343, -0.06036776676774025, 0.07424066215753555, -0.032899387180805206, 0.08115193247795105, 0.08924210071563721, 0.02996154874563217, 0.04137502983212471, -0.14452072978019714, 0.10738055408000946, 0.030995573848485947, 0.09128626435995102, -0.18621380627155304, -0.05729159340262413, 0.08505675196647644, -0.06970689445734024, -0.030667301267385483, -0.020789669826626778, 0.08049412816762924, 0.10042352229356766, -0.0047628069296479225, 0.1169992983341217, 0.05567659065127373, 0.07430274784564972, 0.05115412175655365, 0.001550121116451919, 0.012318738736212254, -0.10765597224235535, 0.06592439115047455, 0.08477901667356491, -0.09944279491901398, 0.09212614595890045, -0.14499054849147797, 0.0338328555226326, -0.025105496868491173, 0.0789090245962143, -0.1690661758184433, -0.16272589564323425, -0.0196346715092659, 0.0012235523900017142, 0.08847346156835556, -0.05667577683925629, -0.07546928524971008, -0.15912969410419464, -0.1880325973033905, 0.03870074078440666, 0.04479245841503143, 0.12510673701763153, -0.04261234030127525, -0.10662169754505157, 0.026254499331116676, -0.021279888227581978, -0.024652551859617233, 0.0036773928441107273, 0.05432414636015892, 0.006815653294324875, -0.14652283489704132, -0.026124656200408936, -0.053112443536520004, -0.14466193318367004, -0.07531233131885529, -0.13851845264434814, -0.05768906697630882, -0.05931625887751579, -0.026055725291371346, 0.0925312489271164, -0.03895065560936928, -0.008553516119718552, 0.03148122876882553, 0.10039160400629044, -0.07505184412002563, 0.05503545328974724, -0.02174067124724388, -0.12015116214752197, 0.03170475736260414, 0.057858046144247055, -0.011980438604950905, 0.04943731054663658, 0.04323191940784454, -0.085523821413517, -0.015460782684385777, 0.06839776039123535, 0.12274926900863647, -0.07900162786245346, -0.07318918406963348, 0.06436710059642792, -0.1283215433359146, 0.051873236894607544, 0.07640902698040009, -0.22033001482486725, 0.03950456529855728, -0.048306290060281754, 0.003951262217015028, 0.030729368329048157, 0.15853272378444672, 0.0060415007174015045, -0.02091948688030243, 0.00770388962700963, -0.038684677332639694, 0.038861192762851715, -0.007790550123900175, -0.03960641101002693, 0.0637369155883789, -0.1117268055677414, -0.11868158727884293, 0.05924541503190994, -0.12153816968202591, -0.00984216295182705, -0.06515847146511078, 0.03911770135164261, 0.10544285178184509, -0.012279102578759193, 0.08079016953706741, -0.22980663180351257, 0.0480651780962944, -0.04102630168199539, -0.06993986666202545, 0.03507671505212784, 0.016323581337928772, 0.05165863782167435, -0.045814819633960724, 0.06307144463062286, -0.11749545484781265, -0.10835417360067368, 0.09973093867301941, -0.08971953392028809, -0.29514044523239136, 0.10052148997783661, 0.03872087225317955, 0.10684682428836823, -0.11594019830226898, 0.008427896536886692, 0.013889921829104424, -0.023577993735671043, -0.07430043816566467, -0.044789090752601624, -0.047425758093595505, -0.030435241758823395, -0.1541721522808075, -0.07026243954896927, -0.12158230692148209, 0.10153597593307495, 0.05282973498106003, 0.07979005575180054, -0.03982601687312126, -0.21047215163707733, 0.0897473469376564, -0.07637318968772888, -0.048499640077352524, -0.1144731193780899, 0.09303930401802063, -0.14363764226436615, -0.02146339602768421, 0.09349760413169861, -0.227183535695076, -0.10017648339271545, -0.08703529089689255, -0.03322442248463631, -0.2817004919052124, 0.0807100310921669, 0.06864006072282791, -0.00540353124961257, -0.03152624890208244, 0.06105479225516319, -0.04800737276673317, -0.0573539137840271, 0.01957501471042633, -0.09830668568611145, -0.04306413605809212, -0.051764991134405136, 0.053391292691230774, -0.12336236238479614, -0.08828803896903992, -0.1219230443239212, 0.023799417540431023, -0.009855065494775772, -0.08790360391139984, -0.06413736939430237, -0.16101598739624023, 0.08817785978317261, -0.036947645246982574, 0.11267173290252686, 0.07647065818309784, -0.05359354987740517, -0.004893039353191853, 0.02595873922109604, -0.14179155230522156, -0.07076014578342438, -0.13652795553207397, -0.018470846116542816, -0.0559677891433239, 0.08641166239976883, 0.015746543183922768, 0.0642920657992363, 0.1714729517698288, 0.04373534396290779, 0.0005590178770944476, -0.053280308842659, 0.08011074364185333, -0.018002372235059738, -0.18449941277503967, 0.11589985340833664, -0.16306112706661224, 0.01778528280556202, -0.11514881253242493, -0.22637659311294556, 0.02262086607515812, 0.09822995960712433, 0.08883694559335709, -0.13732478022575378, -0.003946198150515556, -0.005852450616657734, 0.059362512081861496, -0.06619028002023697, 0.029471304267644882, -0.042302947491407394, -0.06716304272413254, 0.07899323850870132, -0.0256944727152586, -0.09512388706207275, 0.09256637841463089, -0.09706410765647888, 0.013111422769725323, 0.009244757704436779, -0.09593389183282852, -0.058921605348587036, -0.16757109761238098, -0.012365629896521568, 0.049718067049980164, 0.06303972005844116, -0.0602080337703228, 0.030442312359809875, 0.20781946182250977, 0.09385048598051071, 0.13567619025707245, 0.006361562758684158, -0.021289531141519547, -0.14296431839466095, -0.12932342290878296, 0.1228608787059784, -0.19527173042297363, 0.11752437800168991, 0.047802604734897614, -0.06967046856880188, -0.14482839405536652, -0.009552598930895329, -0.07460247725248337, 0.027489032596349716, -0.10560943186283112, 0.009814218617975712, 0.05455733835697174, 0.013383440673351288, 0.06451451033353806, -0.04860787093639374, 0.031845822930336, -0.0443173386156559, -0.030997376888990402, 0.038016460835933685, 0.123151496052742, -0.023779544979333878, -0.05834056809544563, 0.08652079850435257, 0.007348422426730394, -0.010695342905819416, 0.07964447885751724, 0.020026398822665215, 0.026560800150036812, 0.07787131518125534, 0.04843946173787117, -0.14443062245845795, 0.029693102464079857, -0.10259444266557693, -0.008715795353055, 0.07260729372501373, -0.10704981535673141, 0.03070729412138462, -0.032261211425065994, 0.05965637415647507, 0.054711297154426575, 0.09692540764808655, -0.021086443215608597, 0.0228106789290905, -0.011659636162221432, 0.10197670757770538, -0.012615455314517021, -0.06850080192089081, -0.038396015763282776, -0.1117161363363266, -0.0638369470834732, -0.0020165997557342052, -0.01352816354483366, -0.0810249075293541, 0.13596868515014648, 0.05890326946973801, 0.09389399737119675, 0.06342771649360657, 0.04345765337347984, -0.10345491021871567, -0.0411817692220211, 0.04797579348087311, 0.033987097442150116, 0.009926261380314827, -0.15182927250862122, -0.022410709410905838, -0.03743473067879677, -0.006770384963601828, 0.02574097365140915, 0.07259416580200195, -0.037266019731760025, -0.15974536538124084, 0.006449551321566105, 0.040136344730854034, -0.061068031936883926, -0.025317849591374397, 0.005810369271785021, 0.11803635209798813, 0.1277300864458084, 0.033878128975629807, -0.022843118757009506, 0.024815315380692482, 0.036357223987579346, 0.02185972034931183, -0.07925568521022797, 0.12434916198253632, -0.17621365189552307, 0.03513830900192261, -0.03263421729207039, 0.07724034041166306, -0.07280206680297852, 0.09245303273200989, 0.037039563059806824, -0.1125093623995781, -0.05323023721575737, 0.06432350724935532, 0.09262651950120926, -0.10073049366474152, 0.0610087551176548, -0.09434056282043457, -0.05717286467552185, 0.05847559869289398, -0.03645401820540428, 0.11515258252620697, -0.04183570295572281, -0.15661577880382538, 0.05308832228183746, -0.04099865257740021, -0.06905149668455124, -0.18679329752922058, -0.13128001987934113, 0.00690846424549818, 0.0020391803700476885, -0.1138673722743988, 0.03302760422229767, 0.008506909012794495, -0.16012191772460938, -0.041501205414533615, 0.04096229001879692, -0.0065573700703680515, -0.05964519456028938, -0.11319021135568619, 0.18678313493728638, 0.053181808441877365, 0.11175726354122162, 0.09602227061986923, -0.03192685544490814, -0.15839101374149323, -0.007915124297142029, -0.11700140684843063, 0.09522939473390579, 0.11394321173429489, 0.09853868186473846, -0.10906752943992615, -0.11540485918521881, -0.005011054687201977, -0.12022582441568375, -0.09418721497058868, 0.10240846872329712, -0.0391317680478096, -0.05267280712723732, 0.0196751207113266, 0.11259069293737411, 0.060136135667562485, 0.04040873795747757, 0.05069918558001518, -0.02112293243408203, 0.05508774518966675, 0.017426591366529465, -0.02013750746846199, 0.0943765863776207, -0.061939287930727005, -0.07591395080089569, -0.02235119231045246, 0.18788744509220123, 0.023228034377098083, 0.17213918268680573, 0.020372262224555016, 0.10512161254882812, -0.14442095160484314, -0.0075260791927576065, 0.05359288305044174, -0.04153593257069588, 0.04553848132491112, 0.09765847027301788, 0.09934204816818237, 0.04024175927042961, -0.03655581176280975, -0.13978944718837738, 0.02749614790081978, 0.03274970129132271, -0.17499852180480957, 0.10371626168489456, 0.09395434707403183, 0.06865444779396057, 0.0897899866104126, 0.02373514510691166, 0.1570395678281784, 0.01284036971628666, -0.052640579640865326, -0.1800387054681778, -0.010014672763645649, -0.06875571608543396, 0.046758174896240234, 0.00025079058832488954, 0.026059838011860847, 0.11702684313058853, 0.006133913062512875, 0.06571375578641891, 0.007948677986860275, -0.08137576282024384, -0.09597569704055786, 0.08523527532815933, 0.02162335254251957, 0.018542498350143433, 0.0066449400037527084, -0.020134631544351578, 0.05366751179099083, -0.06824763119220734, -0.10377271473407745, -0.02768055349588394, -0.002501324750483036, -0.04176108539104462, -0.1585821658372879, 0.08760686218738556, -0.17985722422599792, -0.12693072855472565, -0.11248254776000977, -0.03058258816599846, -0.12582939863204956, -0.08173656463623047, -0.0287550650537014, 0.05018002912402153, 0.059932395815849304, -0.04127892851829529, 0.000823048991151154, -0.0776745080947876, 0.0609099380671978, -0.0013965123798698187, -0.020742183551192284, -0.07279864698648453, 0.01576957479119301, 0.03275183215737343, -0.046182140707969666, 0.10332246124744415, 0.0026186013128608465, 0.09706499427556992, 0.13247711956501007, -0.030897751450538635, -0.0509922131896019, 0.11252141743898392, -0.11927736550569534, -0.16541555523872375, 0.007827172987163067, 0.07933185249567032, -0.014494157396256924, 0.093276247382164, 0.11548522114753723, -0.060370251536369324, 0.03172754496335983, -0.014828914776444435, -0.15390107035636902, -0.021567221730947495, -0.09028197824954987, 0.04642954841256142, -0.08921194076538086, -0.13561879098415375, -0.08119054138660431, 0.05930548533797264, -0.01439706701785326, 0.14520208537578583, -0.055246561765670776, 0.05482524260878563, -0.0585201159119606, -0.07537497580051422, -0.08743759244680405, -0.12362322211265564, 0.06525687128305435, -0.018563376739621162, -0.00556033244356513, -0.0349588468670845, -0.06623846292495728, 0.015728043392300606, -0.15232384204864502, -0.0795050710439682, 0.04525000602006912, 0.07376381009817123, 0.056624945253133774, -0.08130180090665817, -0.09534216672182083, 0.046021562069654465, -0.1320173740386963, -0.06557612121105194, 0.05370057001709938, -0.07186917215585709, -0.09322340786457062, 0.02327525056898594, 0.09017252177000046, -0.08178061246871948, 0.06287993490695953, 0.0977887436747551, 0.05419015511870384, -0.1012217253446579, -0.03646939620375633, -0.04683665186166763, -0.03180626779794693, -0.11873714625835419, -0.11373912543058395, 0.1340731680393219, 0.09011360257863998, -0.09941377490758896, -0.043501608073711395, 0.12899981439113617, -0.08109744638204575, 0.04135582223534584, -0.06344969570636749, 0.052346307784318924, 0.15063616633415222, -0.0059695737436413765, -0.10909586399793625, 0.011094380170106888, 0.1189192682504654, 0.0802202895283699, 0.07974081486463547, -0.054572172462940216, 0.06333321332931519, -0.12381437420845032, 0.0957224890589714, -0.0828792080283165, 0.05393499508500099, 0.01054039504379034, -0.11567248404026031, 0.0059240576811134815, 0.01183334644883871, -0.0009794102516025305, -0.07946506142616272, -0.052127327769994736, -0.15749242901802063, -0.14259019494056702, -0.0033205372747033834, -0.08174733072519302, 0.11387018859386444, -0.0927795022726059, -0.0861753448843956, 0.08130975067615509, -0.06682449579238892, -0.16745056211948395, 0.11160369962453842, 0.031849876046180725, 0.03492393717169762, -0.11011116951704025, 0.04574226960539818, -0.10975421220064163, -0.007875028997659683, -0.005399590358138084, -0.07755786925554276, -0.020379940047860146, 0.06481548398733139, 0.04613335058093071, -0.07984192669391632, -0.06512866169214249, -0.004306958056986332, 0.012920476496219635, 0.13855847716331482, 0.033195286989212036, -0.050363458693027496, 0.06679888069629669, 0.0495421327650547, -0.018010493367910385, 0.11157660186290741, 0.057676251977682114, -0.020655760541558266, -0.03230753913521767, -0.03712048381567001, -0.05954980477690697, 0.10558293759822845, -0.10093493014574051, -0.09878768771886826, -0.07924022525548935, -0.11688965559005737, -0.13990965485572815, 0.005104137118905783, -0.00808572769165039, -0.1222347691655159, -0.048134807497262955, 0.033617619425058365, 0.08559467643499374, 0.0689188539981842, 0.116140216588974, 0.05918826535344124, 0.03763342648744583, -0.06506388634443283, -0.06387078762054443, -0.011502857320010662, -0.08216443657875061, -0.0389760322868824, -0.08099410682916641, -0.11638043820858002, -0.08143550902605057, 0.07890445739030838, -0.05661735311150551, 0.0768374353647232, -0.21818257868289948, 0.03910689800977707, 0.11009546369314194, -0.003166797338053584, 0.009960700757801533, -0.21836240589618683, 0.0442955382168293, 0.07512407749891281, -0.06479306519031525, -0.05527816712856293, 0.03695705905556679, -0.015578728169202805, -0.11324694752693176, 0.11092966794967651, -0.06934426724910736, -0.11952938139438629, 0.06643091142177582, -0.020429151132702827, -0.3011511266231537, 0.085698202252388, 0.06081478297710419, -0.09974656254053116, -0.09837612509727478, 0.09951537102460861, -0.17044731974601746, 0.01037776842713356, -0.11286403238773346, 0.0871010273694992, -0.09667310118675232, 0.04638984054327011, -0.10447315126657486, -0.033073872327804565, -0.18675169348716736, 0.04224042221903801, 0.11215410381555557, -0.0654168501496315, -0.1779206097126007, -0.2607082724571228, -0.03299197927117348, -0.08708775788545609, -0.04010114073753357, 0.07959465682506561, 0.03270158916711807, -0.14760670065879822, -0.057803329080343246, 0.020278112962841988, -0.2573932111263275, -0.19966493546962738, -0.17040812969207764, 0.02044854871928692, -0.30150312185287476, -0.05917122960090637, -0.0886748656630516, 0.006979134399443865, 0.06376241147518158, 0.015385004691779613, -0.05912819504737854, -0.05868631973862648, 0.03797033056616783, 0.00946529395878315, -0.08390632271766663, -0.11113429814577103, -0.022416017949581146, 0.020180953666567802, -0.1593378484249115, -0.02378186583518982, -0.041177790611982346, 0.05769038572907448, -0.05452657490968704, -0.13351580500602722, -0.02120695449411869, -0.03385548293590546, -0.07263198494911194, -0.06955032795667648, 0.051872413605451584, -0.10220931470394135, -0.09481731802225113, 0.024589508771896362, 0.01823609694838524, -0.10218226164579391, -0.02118629589676857, 0.08971653878688812, -0.17509761452674866, 0.04222182556986809, 0.014208128675818443, -0.08300278335809708, 0.12055893987417221, -0.06355378031730652, -0.02636142261326313, -0.016109995543956757, -0.12392957508563995, 0.023762209340929985, -0.07650329917669296, 0.0787532776594162, -0.0175123643130064, 0.01856786571443081, -0.05629945546388626, -0.07661117613315582, 0.015934256836771965, 0.07222854346036911, -0.043124232441186905, -0.021370066329836845, 0.03383152559399605, -0.08437730371952057, 0.09928315132856369, -0.04302497208118439, 0.05927497148513794, -0.02967970259487629, 0.0013844802742823958, -0.04505784437060356, -0.21045367419719696, -0.07442928850650787, -0.11017012596130371, -0.04395207017660141, -0.19646283984184265, -0.021494584158062935, -0.08165065199136734, 0.10790861397981644, -0.06755777448415756, -0.10119588673114777, -0.00917112361639738, -0.11058696359395981, -0.04720110446214676, -0.06519812345504761, 0.23317909240722656, -0.0470164455473423, 0.20273463428020477, 0.014692739583551884, -0.011921496130526066, -0.002061873208731413, -0.1272677630186081, 0.08534445613622665, 0.019525445997714996, 0.09989404678344727, -0.03983064740896225, 0.0043839504942297935, 0.048860762268304825, 0.05186351761221886, 0.12561285495758057, -0.09352540969848633, -0.026014303788542747, 0.051646675914525986, -0.034543462097644806, -0.025911694392561913, -0.08863857388496399, -0.1783999502658844, 